Training_Loss,Training_KL_Divergence,Training_Reconstruction,Validation_Loss,Validation_KL_Divergence,Validation_Reconstruction,Number of optimiser steps
196.43282603271214,8.042524928689135,-188.39030884697524,13.931495016655036,3.7025968838581997,-10.22889776989422,29
10.775911592464594,1.8336130870873768,-8.94229852745788,7.222549792939582,0.9766876760837251,-6.245862099976666,58
6.914538228919251,0.6891066357739837,-6.225431465392864,6.717870049772009,0.3263764086022841,-6.391494075808905,87
6.979056522890909,0.498493954785735,-6.480562456124673,8.011254935137993,0.5571685639102902,-7.4540863037109375,116
9.206824975607807,0.42611083700480773,-8.780714192753196,9.699135071408433,0.23737655487735715,-9.461758098771087,145
9.288536639565802,0.402045330375663,-8.886491230856361,7.4703922018540645,0.4466783472921996,-7.023714048672566,174
11.16392122161428,0.9103242470384827,-10.253596733791431,12.442288137115208,0.6008952908811316,-11.841393394807799,203
10.964646848323195,0.689365737099106,-10.275281264737265,8.957456462151182,0.5976768932511322,-8.35977915535986,232
11.339225757476907,0.5045002750156996,-10.834725368377786,13.182162867183179,1.8365570507218352,-11.345606170924365,261
13.557108564702784,0.5864929737566325,-12.970615424815454,12.59037882880827,0.48811411224635304,-12.102264944431,290
12.205765899775967,0.5022453841195743,-11.703520433116774,11.351761708217385,0.40778526795648895,-10.943976208172014,319
11.208191931576293,0.4338041582076,-10.774387397471704,10.638595192833284,0.38783073003313184,-10.250764424821972,348
10.532152476620912,0.4186567250791169,-10.113495571216385,10.008888894477776,0.37894243476665124,-9.629946683360412,377
9.887172042863503,0.4144262952079058,-9.472745783930971,9.342064756207762,0.3628617050373449,-8.979203080709002,406
9.10842266944961,0.4057030330813575,-8.702719691569907,8.440542997512143,0.3974790826307989,-8.043064218706789,435
8.060163640397649,0.41774074403033107,-7.64242271078461,7.246065384518784,0.39741770989072006,-6.848647396121405,464
6.78566263897022,0.38052035534657874,-6.405142198455374,5.933710925346982,0.28459086460349836,-5.649120162018632,493
5.271418283372099,0.32513784179351035,-4.9462806003490645,4.146451414158914,0.39138282083832054,-3.7550688211896777,522
7.419244623236777,0.32991001361523076,-7.089334599369811,7.664457966796065,0.1978828316241239,-7.466575284974765,551
7.096685982065926,0.2353636311591,-6.861322438703745,5.893741983228026,0.26373917655607243,-5.630002924826293,580
5.151498090077393,0.38708565016959967,-4.764412489852148,3.9660188476596256,0.33528364654135917,-3.630735279184527,609
7.125418613606278,0.2471153528451131,-6.878303174541435,6.795287537363778,0.18683043623392562,-6.608457042052683,638
6.399439275461889,0.43870520355157316,-5.960734231732252,5.539690435460184,0.4054738272607854,-5.134216578660813,667
4.907571671684627,0.44895665148784464,-4.458615076975628,3.8140400553171614,0.43488220619944346,-3.3791580200195312,696
6.319216300791916,0.2846854277193349,-6.034530837322937,6.235289037755106,0.16392841803289093,-6.071360630271709,725
5.553945249075927,0.37796366122749436,-5.175981527915206,4.443072428745506,0.4286970417056463,-4.014375365940871,754
3.6761714526284752,0.45424158176224444,-3.221929901358574,2.3603446378117114,0.42808534402762893,-1.932259213607923,783
5.894210906906717,0.4560841721500031,-5.438126731208036,14.975317625872856,0.16683941182837023,-14.80847870143114,812
7.991114773061599,0.11044872444546078,-7.880666150279187,7.295769176651946,0.09690936265793522,-7.198859560806139,841
6.729446117775443,0.33385877782743845,-6.3955872776489935,7.753921972966827,0.26073213594149697,-7.493189988938053,870
6.007934624462695,0.377893946793797,-5.630040682926199,5.231482818063381,0.5127155337713462,-4.718767081741738,899
8.720557874197997,0.314407996595103,-8.406149825292754,8.324750355914631,0.3214716362742196,-8.003278614145465,928
8.055838029728966,0.5171430076758943,-7.538695161897266,7.450628365035605,0.5473984068473884,-6.903229840033878,957
7.239320046320771,0.5278467716692301,-6.711473324070166,6.6259556238630175,0.4869360417391347,-6.1390194513101495,986
6.3280407822513265,0.5391060388600813,-5.788934772832128,5.6485008518252755,0.5105066172844541,-5.137994344255565,1015
5.237190315452668,0.5212482060197958,-4.715942122050394,4.475325778522323,0.4864499590038198,-3.9888760727063746,1044
12.551771055640039,0.4038042283505037,-12.147966849633063,12.354366623194872,0.20789394758443916,-12.146472492049226,1073
11.371398428440619,0.4459328604112518,-10.925465340913984,10.326407972690278,0.43706877463686783,-9.889339480779867,1102
9.835297801134473,0.5335551364944946,-9.301742789238002,9.061513436579071,0.5617417276433084,-8.499771928365252,1131
8.92689768613502,0.6136473021670239,-8.313250414460338,8.50187518955332,0.6152775857300885,-7.886598030022816,1160
8.504388920133144,0.6206256699272921,-7.8837632722865125,7.8799585705309845,0.5747969129444224,-7.305162142863316,1189
6.5146166765702995,0.6081417408641407,-5.906474882081693,4.463050694592231,0.5120983672353019,-3.9509521079274403,1218
3.63030996028223,0.5179465471581035,-3.112363355162388,4.247402906417847,0.5473741936472665,-3.700028444813416,1247
3.560078607241663,0.5662816598633553,-2.9937969699847002,2.3185059866019055,0.5151750471739642,-1.8033310881758158,1276
2.3392598668427556,0.46770760610847517,-1.871552297009654,1.6907793241264546,0.4548787311115096,-1.235900575080804,1305
1.2126144225962765,0.510472080016215,-0.7021423427114939,-0.1789604298836362,0.5865281029085142,0.7654885148580095,1334
9.413390952933584,0.4575461631573022,-8.955844427022544,7.034398028280883,0.7725704074960894,-6.261827722059942,1363
6.593841092720578,0.6359025393720499,-5.957938462397229,5.751477309032879,0.6289258045432842,-5.1225517745566576,1392
5.3648395974686025,0.6212994476663238,-4.743540077251531,4.578038422407302,0.5370231560901203,-4.041015354932937,1421
4.179544866807931,0.5404522437376382,-3.6390925936294103,3.3273366847924426,0.502424020682816,-2.824912754835281,1450
2.8938937981047204,0.5179170989149067,-2.3759767139102554,2.044773533280972,0.5558735079469934,-1.4889001086749862,1479
2.0458093779089697,0.5394797772004822,-1.5063295884852634,1.5083366199932267,0.5834095625750786,-0.9249270827369352,1508
5.504062375002422,0.5299745909828598,-4.974087833963917,4.537477949024302,0.5981556968351381,-3.939322209991185,1537
4.539543833201618,0.6711218296627226,-3.8684219309881476,4.08453018053443,0.5250937580007368,-3.5594364267534915,1566
3.7531753138381303,0.5620614333610157,-3.1911138179152383,3.046382285852348,0.4789230507032006,-2.5674591739620785,1595
2.7965103616525213,0.5396484398132122,-2.2568619190792263,2.0753946272672805,0.45659436166813944,-1.6188003573797445,1624
1.7454751446070982,0.5316172907870291,-1.2138578778722189,1.0715066176072685,0.5994629733330381,-0.47204361763675656,1653
4.7393950861370415,0.9780371402038103,-3.761357967751029,5.470764552597451,1.8114577943244867,-3.6593070241202295,1682
4.328940002237423,0.9444023061876392,-3.384537689478158,2.7616653041502017,0.5450763280412793,-2.216589007757406,1711
1.9636064432684615,0.603894556501866,-1.3597119403910611,0.2662348615384735,0.6075970810071557,0.3413622316006011,1740
2.309063196182251,0.5701974392462986,-1.7388657366953453,1.545589512955826,0.4979547610325096,-1.0476347492859426,1769
0.8492273589577669,0.5634616769792752,-0.28576569678107855,-0.8985957920023825,0.5323548949925245,1.430950738687431,1798
11.415301182041357,0.6033541259849742,-10.811947188540357,6.671251301216868,0.6881871096855772,-5.983064026959174,1827
6.388215969783863,0.6721108298843199,-5.716105089955188,5.774150333573333,0.4560721279245562,-5.318077695053236,1856
5.613606756288135,0.4988783570345339,-5.1147284376318956,5.1512647434673475,0.5016610896692867,-4.6496033795112,1885
4.986823009945198,0.49728108293560663,-4.489541984314167,4.537064003733407,0.46325546450319544,-4.073808281822542,1914
4.371143789512188,0.48424838948276105,-3.8868953910920165,3.8607853724893215,0.41391211484385804,-3.446872913731938,1943
3.5611022596453883,0.4590706119463751,-3.1020317329987144,2.921070858440568,0.4979923383324547,-2.4230783513161986,1972
5.227695598097594,0.9937726518153619,-4.233922876360135,5.523725290214066,1.7212936941501313,-3.8024314272720203,2001
4.567023633990556,0.9151702395084806,-3.651853302742181,3.380191887374473,0.38535654439335376,-2.9948355075532356,2030
3.074803518486654,0.548757603044941,-2.5260458654973577,2.3546612093933916,0.5504365347127999,-1.8042246388123098,2059
4.2877915475965205,0.6010464875411566,-3.6867450894962466,4.827847873215127,1.2971528990078816,-3.5306950121854257,2088
4.589321963973713,0.8237060591036325,-3.765615928002203,3.580709727464524,0.6104231387113048,-2.970286647830389,2117
3.350930373750159,0.6001708694172011,-2.750759518001939,2.7402828646972117,0.5459739465629105,-2.1943088295185462,2146
2.448357219732846,0.5397675434310223,-1.9085895912649875,1.8595042735074474,0.44092872501474567,-1.4185756075698717,2175
1.3918326225669801,0.4855926817543846,-0.9062399391039729,0.6706473255051976,0.4141875368303957,-0.25645976361975203,2204
0.6168730647489018,0.46396889103024114,-0.15290417219075766,0.32111605400203075,0.42791035323016413,0.10679429189293785,2233
0.13059245961766522,0.4490647615645134,0.3184723027354433,-0.4011274940144699,0.3941869398133945,0.7953144343553391,2262
0.7501171546050706,0.4282592691423612,-0.32185792186951556,-0.03441768515426501,0.5077530430481497,0.542170735587061,2291
-0.2206422687234006,0.49974460191737197,0.7203868583518326,-0.8002153867113907,0.38223965822067935,1.182455062866211,2320
11.425469953669472,1.836344307812204,-9.58912537458056,10.746236058463037,2.456908605794991,-8.289327165721792,2349
7.361846413344243,0.8132396309483537,-6.5486067590009025,5.8167187808889205,0.3966277637312898,-5.4200912745653005,2378
5.3536483513349475,0.46677973041723686,-4.886868574653466,4.755663373828989,0.4250575546669749,-4.330605971074737,2407
4.627337661835693,0.4354540620906876,-4.191883600270735,4.046725041043442,0.43715732709496424,-3.609567692849488,2436
3.4351069724809506,0.5061151920894804,-2.9289917656710287,2.2743339169341907,0.5675357464140496,-1.706798249641351,2465
1.9871333577272778,0.5766347818889849,-1.4104985770211855,1.2035253069042104,0.5348567034290955,-0.6686685992553171,2494
1.1944219079340963,0.6063661154733341,-0.5880557925593367,0.9360918901135437,0.5170816067045769,-0.41901029738704715,2523
-0.0451311375103817,0.6030785498571763,0.6482096924934261,-0.23376406874276895,0.5565048741028372,0.790268957087424,2552
0.6449471228440777,0.5370748203407969,-0.10787232550397072,0.5284744367267178,0.44488265451076814,-0.0835917755565812,2581
0.027237107958788382,0.6092476545121467,0.5820105422818017,-1.1854214773768872,0.5352241549871665,1.7206456007155697,2610
0.525302273164839,0.5224557842940191,-0.0028464746843230764,-0.33475787555221964,0.38300695250519606,0.7177649008489289,2639
0.7190048697239246,0.8361529378670185,0.11714804501097152,0.42250806831680565,1.201121642526272,0.7786136053304756,2668
-0.3643713408491709,0.9013154656516414,1.2656867922075266,-1.7350483932326326,0.485548854929156,2.2205973262280487,2697
5.579602472311606,0.6179809475681091,-4.961621425643383,9.18806355400423,2.284049042558248,-6.904014182301749,2726
6.500366819732902,0.7782065450422293,-5.722160305708745,4.237593460926967,0.43276474117177777,-3.8048286100404454,2755
4.186315848256945,0.39442498523581776,-3.7918909613326472,4.001060622983275,0.5040747887265365,-3.496985815267647,2784
3.374779540622379,0.5291632186485887,-2.845616310144864,2.419483701739691,0.5650957664557262,-1.8543878572177044,2813
3.8461741354920242,0.6569139781308411,-3.189260097953687,4.521512048434367,1.013418619611622,-3.5080933022288097,2842
3.479727019022949,0.7084235550944571,-2.7713034733916326,2.3794168223321965,0.5965524394955255,-1.78286444402374,2871
1.8995558017538297,0.6674968058114015,-1.2320590040255277,0.5547325669796066,0.6014313402429091,0.04669873271368246,2900
0.8633679237623331,0.5988432370052317,-0.26452466053631496,-0.14082291168449199,0.5151058973464291,0.6559287805472855,2929
-0.6891479607848112,0.5261673191285055,1.2153152657186053,-1.5831037496043519,0.5281627368083043,2.111266515951241,2958
2.0789990328506964,0.5584528653860881,-1.5205462415268298,0.2896408395165891,0.4773763808528934,0.18773550902847694,2987
-0.2120519851507925,0.5073820758680787,0.7194340570758958,-0.9260554988827325,0.44201362660500854,1.3680690832897626,3016
-0.8783706104610826,0.4752436441255378,1.3536142619468412,-1.5680974732458064,0.49179971323604077,2.059897262438209,3045
-1.9012236629326262,0.5268802416758342,2.428103937992319,6.634118208842995,0.44525195856009964,-6.188866269271986,3074
0.5972788142658515,0.7048706214509436,0.10759182328557496,-0.8033292356845552,0.6477463983856471,1.4510756636087874,3103
-1.2217753261426318,0.5459333507070994,1.7677086805955577,-2.057034414426415,0.43643471203019135,2.493469170764484,3132
14.212384763337022,1.3068330232731693,-12.905551763195975,7.558266597511494,0.9988534809213824,-6.559412930919006,3161
5.232481759070299,0.4472464694997836,-4.78523519362478,3.5974320795683736,0.46775936447413624,-3.1296727678417104,3190
2.9086129873038127,0.483043711661241,-2.425569318752436,1.7868808972097077,0.45159237785676937,-1.3352885963642491,3219
0.9628304313404163,0.4917227346552772,-0.4711077060825638,0.1603891984023879,0.4914111415896795,0.33102195030820053,3248
-0.24617869325614686,0.5530249549377845,0.7992036594971275,-0.08495463470442105,0.5240004463533384,0.6089550794753353,3277
-0.9738645800681992,0.5678771911671564,1.541741765452325,-1.682002249017226,0.5324774969995549,2.2144797671157703,3306
0.785344064169971,0.5380466234066258,-0.24729739633915573,19.53767167150447,0.5167581549787943,-19.020911562759263,3335
3.5703147522275476,0.7054008848743376,-2.864913708057004,2.3064133582916937,0.42249441146850586,-1.8839189985157114,3364
1.929581633739198,0.5594005847581823,-1.3701810679072977,1.1200413084135645,0.5481342973962294,-0.5719070191931935,3393
0.7297003184380513,0.6018131975302229,-0.1278871151946214,-0.03827081000910396,0.5728147388559527,0.6110855372606125,3422
4.3208667506456635,0.9446255832154801,-3.376241428455155,8.32354483984213,3.9215919697179205,-4.401952625375934,3451
5.3915264461900065,1.6279643036696194,-3.763562228740116,3.271708471585164,0.8213166009008357,-2.4503918875635198,3480
2.0731426012818317,0.7636424782783483,-1.309500088633881,-0.052254435762894895,0.7587408302104579,0.8109952369622425,3509
-0.668179461619557,0.7209620134044509,1.3891414802155921,-1.7430302548197518,0.6698274443634843,2.4128576295565716,3538
-0.10216619516286461,0.6587558912468587,0.760922078129475,-1.1791004491063346,0.576086179345055,1.7551866717043176,3567
-0.4853716838320403,0.6748626187460163,1.1602342946263895,0.051028083910984276,0.7135017952032848,0.6624737461056329,3596
-0.37951828337294,0.5890904571676202,0.9686087521066213,-1.3082413504608965,0.526519505323562,1.8347607840478948,3625
-1.9064277792975817,0.6108877104198788,2.517315566999778,-2.5839371850005293,0.5104506585450299,3.0943877633694,3654
8.127194331525573,0.816036556626628,-7.311157942081103,3.394756800305527,0.5779536846464715,-2.8168031135491565,3683
3.141729678445246,0.6081776845021443,-2.5335520099778686,2.365517735481262,0.6122804321018995,-1.7532372938848175,3712
1.9998143276542655,0.6430722755003133,-1.3567420944752215,1.1539054389021037,0.6137942339466737,-0.5401111978345212,3741
0.7398217509047856,0.6337738173799189,-0.10604794824530824,-0.19301770798927914,0.5853788114227025,0.7783965558077381,3770
-0.3034599102056013,0.6538470393373265,0.9573069320624035,-0.43890988088287086,0.5286730707219217,0.9675829895829733,3799
-0.9720412961308985,0.5936403558430362,1.5656816467823504,-1.7051082269280358,0.5608481685672186,2.265956338527983,3828
7.077237163646744,1.7436759406177054,-5.3335613820623795,3.777130337943018,0.7391420381259074,-3.037988173223175,3857
2.7243113529590155,0.6284751829002237,-2.0958361704530897,1.5311144959610121,0.5270468281433646,-1.0040676741473442,3886
1.0531945657046653,0.5873380632621319,-0.46585649665950285,0.30045861348641656,0.5387219580928836,0.23826330108980162,3915
-0.11752849252116195,0.5542378662176668,0.6717663724735264,-0.8232484771087106,0.5123710758918154,1.3356195635500208,3944
-1.2342071662006988,0.5302857890018686,1.7644929181385987,-1.9399546606350788,0.5304854317049009,2.4704400121638206,3973
-2.1137619477254157,0.5117307224505003,2.6254927163087283,-2.8164077374787455,0.5047733931414848,3.3211809006412474,4002
-2.5964916485804315,0.4983441290808092,3.0948357797641606,-2.9241475974564004,0.4703008221314017,3.394448271894877,4031
-2.2212533251584694,0.4776056094101272,2.698858940351627,-2.037319098953652,0.5141543455883465,2.551473499399371,4060
-1.8374022570045412,0.45564903261380263,2.2930512454570193,-2.557985352203909,0.449976558178927,3.0079619821194,4089
-2.831372574382475,0.47529412472524085,3.306666688593115,-3.4574767467194953,0.46961666208452885,3.927093235792312,4118
-2.196558616915769,0.46649325853408763,2.6630519041021445,-2.207166475532329,0.5404462729935098,2.747612809712908,4147
-3.0179397021528116,0.4882807689570014,3.5062204884589048,-3.660257769896921,0.42474766959131294,4.085005228498341,4176
1.6526894185614034,0.6158181898123374,-1.0368711635585395,1.9891824142067833,0.6899172774458353,-1.2992650766288285,4205
0.02570753763897022,0.5048656426821944,0.479158116280704,-0.5867033806522336,0.5339296518173893,1.1206330493488144,4234
-0.8236144877058406,0.5263840686920065,1.3499985582379022,-1.3661095347024699,0.4515608644063494,1.8176703664053857,4263
-1.6128286188992014,0.4910125732421875,2.1038412222394345,-2.062440144277252,0.4798040474410606,2.54224429510336,4292
-2.3046661290733397,0.48210060714755326,2.7867667420039233,-2.793698002806807,0.4427891790339377,3.236487262016904,4321
-2.5108601770958274,0.4480692454446374,2.9589294004598026,-2.939777494531817,0.45973349461513285,3.399511016575636,4350
-2.939617971864004,0.4621843366402118,3.4018022816919835,-3.536041572030667,0.42286064350499514,3.9589023421295977,4379
2.6125419691878617,0.4598214192584962,-2.152720613805567,-0.3641528988306501,0.41410546176201474,0.7782583489882208,4408
-0.6649245617473796,0.4690686901979962,1.1339932497438812,-1.1227686795513188,0.4528701495280308,1.575638863892682,4437
-1.3810128562374178,0.47979011293808704,1.8608029711469927,-1.916649461847491,0.4516587257385254,2.3683082783116705,4466
-2.1774566370702235,0.4786184141628009,2.6560750896113183,-2.690547717356049,0.4681092152553322,3.1586570402162266,4495
-2.9815346579567468,0.4853380717411062,3.466872710508706,-3.4407181908599043,0.45946448250154476,3.900182740878215,4524
-3.692482863923549,0.4794665686745102,4.171949384493759,-4.035325683323683,0.45624319852980894,4.4915689113920765,4553
-2.936398504455928,0.4646664086355527,3.401064932674925,-1.5263532057272649,0.5266057959700052,2.0529591129944387,4582
-2.89853553288301,0.5594121707970936,3.457947744687048,-3.5850705678484083,0.49101125666525514,4.0760819426680035,4611
-3.9282823812869574,0.5199886135913045,4.448270926007625,-4.490995803765491,0.5055774882831404,4.99657311903692,4640
6.469666698933174,0.9962968637031127,-5.473369987428911,5.276046917501804,0.6651089254733735,-4.61093801312742,4669
2.035729642353681,0.7265115720040217,-1.3092180657413066,-0.16093088462289457,0.7602716125218214,0.9212025161338063,4698
-0.6873217087727792,0.6202356208119923,1.3075573341849094,-1.6976815367166975,0.5632581921805323,2.260939606523092,4727
-1.9047813997773377,0.539885070910133,2.444666447161051,-2.3852570943072835,0.49106231199956574,2.87631934511978,4756
-2.581085098354924,0.5013742531016222,3.082459320438473,-2.575282763590855,0.4626967717061001,3.037979598593923,4785
-2.8898951528879353,0.47365147591688667,3.3635465754432214,-3.4053300503080925,0.45974614134931985,3.8650761157010507,4814
-2.242853067675657,0.4691116260457065,2.711964717642081,-2.882302214614058,0.4420037480582178,3.3243059816613663,4843
-3.1950438911097314,0.47610484252559576,3.6711487186520206,-3.7055170346150357,0.45431007959146413,4.1598272408004355,4872
-3.839065724985865,0.46721432201128943,4.306280142417159,-4.203389556007048,0.44312407063171927,4.646513407209278,4901
7.192727025347744,0.5071907963484624,-6.685535850440785,0.10983988247086517,0.479655974734146,0.3698160753840894,4930
0.2585597048783644,0.5115419440916118,0.2529822499907135,-0.19727764562167951,0.4893744223940689,0.6866520400595876,4959
-1.7801890812214576,0.4896564483642578,2.269845515128139,-3.7646734229231305,0.5418989004287045,4.306572298033047,4988
-3.557887791272955,0.5388891213258282,4.096776901295588,-4.3719836251925575,0.4550681493978585,4.827051685974661,5017
-1.2399309572600477,0.47454950328435763,1.7144804305777923,-1.9849854633871433,0.45145606994628906,2.4364414046295977,5046
-2.2641232628806556,0.4852243442388196,2.7493475311514826,-2.893269576857575,0.442878913035435,3.3361484223762443,5075
-3.3406741211669315,0.4886750754342715,3.8293491603258296,-4.144235965424934,0.44513733197102506,4.589373360692927,5104
-2.036547390602389,0.46185925303903935,2.498406715140716,1.629004020606522,0.45849061645237743,-1.1705133218680863,5133
-1.366122451874755,0.47654937514922324,1.8426718012632057,-2.229257370518372,0.4621475987729773,2.6914049334230676,5162
-2.693026313445271,0.49040117337396155,3.1834274678929506,2.04391017002342,0.4558920269518827,-1.5880177590699323,5191
-3.873388869496927,0.4683619749454048,4.341750850488228,-4.402355742665518,0.43946714738828946,4.841822936471584,5220
-4.134770764274134,0.46542926134321894,4.600200013788427,-3.034888356132845,0.44411970239824955,3.4790082948397747,5249
-3.711667559244141,0.45929852867336757,4.170966054796516,-4.508651923289341,0.44501246393254373,4.95366459399198,5278
-4.865300850673705,0.4702048617134809,5.3355057830978785,4.767062695680466,0.4487436471787174,-4.318319438833051,5307
2.366359928805615,0.5146919595367196,-1.8516680616002361,-1.1876577719122963,0.43171843385274433,1.619376224754131,5336
-1.4830093849717323,0.49222198894294644,1.9752313883065389,-2.1906602340461934,0.455554000044291,2.6462141053866497,5365
-2.5139868701043175,0.47647771604005923,2.9904646111165545,-3.245014021881914,0.4623614623483303,3.707375517988627,5394
-3.4847414837913977,0.4702979968953159,3.9550394228564074,-4.106927158558263,0.4487258143129602,4.555653192300712,5423
-2.241022933804345,0.48153471447272755,2.722557716621979,85.10224300148212,0.6532371065257925,-84.449004586819,5452
13.372726576068041,2.143463923360705,-11.22926178735567,3.460763232897868,1.0437439268669195,-2.417019261723071,5481
2.495746640412521,0.9072592734239068,-1.5884873380734612,1.3715525380278055,0.8241971361953601,-0.54735537334881,5510
0.7949350158855434,0.7823395660720035,-0.012595438510343811,-0.1932938721327655,0.7062355817946713,0.8995294824110723,5539
-0.4713381397421857,0.7288716830387136,1.2002098409843025,-1.2059247535941875,0.6771136005367853,1.8830382760647124,5568
-1.016549223411701,0.6851482549076438,1.7016974441797494,-0.27154942529391396,0.6417304942038207,0.9132799469264208,5597
-1.7634075068454889,0.6310160793569412,2.3944235888967964,-2.7365476895222622,0.5703685346957856,3.306915958370783,5626
0.4778755416286557,0.791116703962938,0.31324120261834765,-0.990751318172016,0.6588604682314713,1.649611717831772,5655
-1.5499364296682878,0.6040301296650509,2.153966556704688,-2.6347097675357243,0.5685791420725594,3.2032887956737417,5684
-2.665113425438827,0.5538251260675432,3.2189385604437812,-3.6227127640648225,0.4832761815163942,4.105988764129909,5713
-2.942693407506638,0.5360986132343128,3.478792024421061,-3.123540439436921,0.5017082374707788,3.6252484616980087,5742
-3.58750507166525,0.5023136601558462,4.089818695019992,9.122592639079135,0.48935153421047517,-8.633240961395535,5771
-0.10248772036017235,0.49224239462922925,0.5947299902599466,-2.473021251965413,0.4860045087021009,2.959025762777413,5800
-2.8248542559054877,0.4981948811532118,3.323049122601123,-3.6431249432859167,0.45374991830471345,4.09687474343629,5829
-3.477202210431588,0.47469678340436605,3.9518989596635006,-1.594920579311067,0.43337882303558617,2.028299382302613,5858
-3.470353869908174,0.46316768000643727,3.933521577778304,-4.406312883427713,0.45757343916766413,4.8638866053218335,5887
-1.1581702518883719,0.470704282657577,1.6288745884332794,-1.8105700353605558,0.4320286354132458,2.242598710861881,5916
-1.690292179321638,0.47573668060386853,2.166028831338935,-2.3895701813486827,0.4666930257746604,2.856263287299502,5945
-2.854811716237431,0.46751351866464497,3.322325225964665,-3.584964473690607,0.4099469100479531,3.9949113288811877,5974
-3.8223059626897875,0.4569910211363333,4.279297022204415,-4.476730907912803,0.436235769660072,4.912966635374897,6003
-2.6960356695517946,0.4569888398823428,3.1530245493896216,-2.404479619676033,0.4642868506169952,2.868766514600906,6032
-1.9656792973736024,0.4780592986740903,2.443738533617249,-2.8440354862044344,0.43296489040408515,3.2770002922125623,6061
-3.2364246311629357,0.46336485769151986,3.699789423663929,-3.9546227370743203,0.4185205814057747,4.373143626525339,6090
-4.232889464040838,0.44168668387348886,4.674576154748817,-4.924224119270797,0.4312905716685067,5.35551479643425,6119
2.3747281364956923,0.45435850044595366,-1.920369588553314,-0.613115319108541,0.4619864235937068,1.0751017005042691,6148
-0.9174644883964396,0.4659193771282394,1.3833838781422,-1.6208453452692622,0.4491334341268624,2.069978832143598,6177
-1.8244411392012136,0.47099368758869276,2.295434815092413,-2.46020985071638,0.458930884842324,2.91914060474497,6206
-2.578277302419206,0.47027489579105064,3.0485522344856304,-3.18344097432837,0.45118736587794483,3.6346282283816715,6235
-3.309413075052785,0.4890251906204644,3.798438323503555,-3.8449775012193528,0.4861437367127005,4.331121191514277,6264
-3.647123554444234,0.5227116786658172,4.169835264128125,-4.266615677723842,0.5051301264129908,4.771746002467332,6293
-1.9721470115728914,0.5003734460344914,2.472520419229089,-2.8779568693279165,0.4482601722784802,3.326216908682764,6322
-2.4458201630770042,0.4618403341173469,2.9076604832625046,-3.2780745493627226,0.4580134417103455,3.7360881028977118,6351
-3.238615729448682,0.4567254002328219,3.6953410913032103,-3.9870689611519334,0.43425540586488437,4.421324400775201,6380
-4.334530216330599,0.46282154906545214,4.797351790893958,-4.890404519781602,0.43263683487883714,5.323041325121855,6409
-5.026509528386159,0.4515207121364337,5.478030203721489,-5.483724619434998,0.4226469402819608,5.906371530178374,6438
-0.46217803970850024,0.44391645643913497,0.9060945794758487,-2.378319809922075,0.4177175412135842,2.796037319487175,6467
-2.686822894126867,0.4677078300694778,3.154530736551001,-3.3551071998292366,0.44245024908960395,3.7975574594683352,6496
-3.5546647306313983,0.43374195855928227,3.9884068153658934,-4.088438287245489,0.5071637989145464,4.595601714817824,6525
-4.267527863103999,0.4916887299097097,4.759216581973377,-4.942066821376835,0.4288433547568532,5.37091017191389,6554
2.4105680885230822,0.47113393659497044,-1.9394338312327797,1.4796515101880099,0.5767729430072075,-0.9028784996640365,6583
0.6748603088195952,0.6496905938793044,-0.025169691413870984,-1.6821096956202415,0.5488861050225992,2.230995887148697,6612
-2.5286655786150476,0.5459606008729441,3.0746262202320707,-3.427085754090706,0.5062579686662793,3.9333437354163787,6641
-2.870775771114766,0.5070375428835902,3.3778133581596803,-3.221663352662483,0.46301055587498485,3.6846739507354465,6670
-3.90737944926816,0.4880276840866072,4.395407149915264,-4.7374445611396725,0.5022465570838051,5.239691067585903,6699
0.04051985866836834,0.5179599085874043,0.4774401705740831,2.8794193816395985,0.4818343272251365,-2.39758499955709,6728
0.521848548733544,0.45964744414357916,-0.062201098215487985,-0.5646631643835422,0.4795275747248557,1.0441907697019324,6757
-1.249372791166211,0.4892143945578309,1.7385871702150053,-2.2314989461308032,0.42381452881129444,2.655313339908566,6786
-2.52668156092853,0.49006795830605704,3.0167495365836787,-3.2078723126808097,0.4668415035821695,3.6747136073829854,6815
-3.737575121462148,0.48816987829408154,4.225745061266646,-3.8780002678390098,0.4519704970638309,4.329970638308905,6844
-3.7778542627967573,0.47894242632612505,4.256796583451142,-4.820472341723146,0.4516231823811489,5.272095469246923,6873
-3.9520408636679853,0.47179297601769227,4.423833891207223,-4.335805171358902,0.43933445162477747,4.775139327597829,6902
-4.515470205620342,0.4454064889674413,4.9608765910189625,-5.012149262217294,0.44459450561388403,5.45674376361138,6931
-4.4519357607672205,0.45715801981344506,4.909093791620997,48.54283847640046,0.45177913767046635,-48.09105905178374,6960
1.2215669223465757,0.470328238465163,-0.7512386473431739,-1.5973194341743941,0.4658569403454266,2.063176450476182,6989
-1.9431937148316036,0.47769952162098067,2.4208932180520324,-2.7989656228934767,0.44350402967064784,3.242469652564125,7018
-2.8269446303589474,0.45056843783915895,3.277513056106315,-3.605990224179968,0.43858653043223694,4.044576594259887,7047
-3.593338413301613,0.4585625286796259,4.051900903602945,-3.6513286818445256,0.4484216428436009,4.0997503500069135,7076
-4.052453980030535,0.48095634543514565,4.533410380404471,-4.73610415922857,0.44700474865668643,5.18310897962182,7105
-4.8871486794199415,0.4652268883937512,5.352375522600908,-4.8937581956914045,0.44845070459146413,5.342209064854985,7134
-1.1636166220331665,0.47613300115297225,1.6397495438009007,-2.830149540858986,0.4769181361240623,3.3070677360602185,7163
-3.345844457535917,0.49521253337670845,3.8410569583173624,-4.23174317115176,0.4587904457497386,4.690533663319275,7192
-4.476715366527553,0.4622583788837067,4.938973789572584,-5.153671112735714,0.4448353210381702,5.598506353597726,7221
-5.221821313393287,0.46543257922558434,5.687253916276724,-5.61910483267455,0.44870977486129354,6.067814919800885,7250
-2.514395038243034,0.45360643624470803,2.968001395102504,-3.724164080830802,0.42766522095266696,4.151829204728118,7279
-4.058715244112362,0.4680925493334988,4.526807879665589,-4.810753847645447,0.4495297364429035,5.26028401872753,7308
-5.000341656715368,0.4595872927395485,5.459928767026588,-5.59413190858554,0.4470789242634731,6.041211018520119,7337
-1.1640937449256534,0.45301220724574787,1.6171058464996606,-2.742182607144381,0.4373130460756015,3.1794956848684666,7366
-3.054612960415875,0.4980827849912801,3.5526957401498542,-3.85378337117423,0.4734910821492693,4.327274761368743,7395
-4.100139225199572,0.4768169249562996,4.576956024506389,-4.839724928931853,0.47449178189302965,5.314216343702468,7424
-4.991268563296855,0.4615058152389106,5.45277431702535,-5.40639962137273,0.4481098715182954,5.854509539308801,7453
-0.38118735195652,1.746989433137164,2.1281767133315315,-2.90050397932002,1.3314204933369054,4.231924411469856,7482
-3.484809558473059,0.9867498661743636,4.471559434110564,-4.611879011171054,0.6473780775492171,5.259257358787334,7511
-4.684333698160724,0.6140898238731981,5.298423464269333,3.38580852694216,0.5114494214015725,-2.8743590971009922,7540
1.6787253687899588,0.5939487680184933,-1.0847765734335029,-1.6142120308580652,0.4950260905037939,2.109238109757415,7569
-2.317698554140993,0.5588012556519766,2.876499802695614,-3.1703929436945284,0.532609104055219,3.703002254519842,7598
-3.5968142333866613,0.5566542293165853,4.153468538934104,-4.2688071748851675,0.5246598446263676,4.7934669562145675,7627
-4.189604061572528,0.574999752486291,4.764603779886365,-3.481116104969936,0.8090945640496449,4.290210622601805,7656
-1.2878313380013227,0.6519425070404087,1.9397738140236582,-2.835302814973139,0.5290083547609042,3.3643110832281873,7685
-2.6365962031132066,0.4908771998564227,3.127473425313157,-3.311323085717395,0.49544337365479596,3.806766476251383,7714
-3.6289041980756025,0.5105372673884248,4.139441455475156,-4.374008216689118,0.49522809644715976,4.869236363773853,7743
-4.642304448860615,0.5047683053400446,5.147072805722204,-5.262304204755125,0.47440125034973685,5.736705206136788,7772
-5.23577485720667,0.4852946737766792,5.721069588287926,-5.6741654387617535,0.45890262485605426,6.133067983441649,7801
-3.9218613331215386,0.48005139604293,4.401912716546947,-1.4316354641872169,0.47304991494237847,1.904685366470202,7830
-3.9201054073615533,0.4679204084907372,4.388025870528216,-4.642214049280217,0.4388372033043245,5.081050974077883,7859
-4.828251282987416,0.4828990354821858,5.311150261690756,-5.519284404484572,0.47774047345186754,5.997025008750173,7888
-3.3107013092052844,0.4833938110755323,3.79409498258883,-4.562433238578054,0.4692428850494655,5.031676165825497,7917
-3.5629149839659906,0.4651186873657832,4.028033646622461,-4.263191919411178,0.46828287681647107,4.731474682293107,7946
-4.383628702742,0.4848587089757278,4.868487466393653,-5.1423354992824315,0.4547403259614928,5.59707601091503,7975
-5.272940261887085,0.47604527731057433,5.748985492407684,-5.862369368561601,0.4670387242747619,6.329408223650097,8004
6.511761250411793,0.5511381591956697,-5.9606229625436935,0.7629358615495462,0.49418155281944615,-0.26875431769717056,8033
0.2777578147269925,0.5210498296701921,0.2432920098173316,-0.5355526862946232,0.4514350722321367,0.9869877638015072,8062
-0.7285016019887146,0.48485977095043514,1.2133613799872183,-1.3630433103679556,0.4604684103906682,1.823511714428927,8091
-1.4749169709795495,0.47827848079054724,1.953195481473845,-2.1043237394991174,0.4615812217239785,2.5659049717725906,8120
-2.2475386210024157,0.4977093752321624,2.7452480564306696,-3.3952241049403638,0.5899497428826527,3.9851740609228083,8149
-3.710112173738658,0.5257448393034173,4.235857003578935,-3.8581028744182757,0.43569317961161114,4.293796100447663,8178
-4.3483224559119416,0.48265831105107115,4.830980748825326,-4.8950645016357965,0.46763714224891323,5.362701416015625,8207
-4.547214236254203,0.4766855860229627,5.023899751303609,-4.768039083058855,0.4715639046863117,5.239602958206582,8236
-5.184798021432189,0.47716287793766177,5.661960934068034,-5.708006124580856,0.46600591186928536,6.174011905636408,8265
-2.971797720468557,0.47862201593939496,3.4504196951381427,-4.234314011261526,0.43403349513501194,4.668347519055932,8294
-4.602008352731791,0.49901267002278155,5.101020972810217,-5.381429946528072,0.482855611142859,5.864285494373963,8323
-5.1577937279672845,0.491340278133405,5.649134054467854,-5.651893712778007,0.45196570759325955,6.1038595554047985,8352
-5.618654531838481,0.4782914547567988,6.096946009727402,-5.6571731229798985,0.453657985788531,6.110831134087216,8381
-2.4015343423189375,0.4743487422232328,2.8758829383892155,-4.620791308647763,0.4521674941071367,5.072958617083795,8410
-4.704881015134094,0.47304729379656035,5.177928154891749,-5.357031396005006,0.4590249863346066,5.816056378119815,8439
-5.381176005387648,0.4755094532404083,5.856685516458362,-5.862882238573732,0.4517722172019756,6.314654324961975,8468
-5.828523043366488,0.47098596776859236,6.299509058976515,-6.210473558544058,0.4595322102572011,6.670005865856609,8497
-1.0686299099023182,0.4672500022585363,1.5358798354042666,-4.218687546991669,0.40798618519200686,4.626673538072974,8526
-4.3710071349222845,0.4806358091360679,4.851642957727333,-5.44909184801895,0.4827936223122926,5.931885170725595,8555
-5.408700641224113,0.46395906934138825,5.872659752623906,0.009815285954855184,0.4733709909219657,0.46355570734074686,8584
-2.1397157498730848,0.47100771932381125,2.610723422669786,-3.814008733867544,0.4796009401304532,4.293609754174157,8613
-4.247398595431411,0.5003811768949229,4.7477797536629165,-5.0678928383683735,0.45216053988026306,5.520053424666413,8642
-5.238240960151647,0.4742126533188657,5.712453617150623,-1.8514598006695773,0.4633697661678348,2.314829666002662,8671
13.835695175246604,1.460879701237957,-12.374815439310463,4.607877879016168,1.1001941039498928,-3.507683813044455,8700
2.3737658152178076,0.6082405691767212,-1.7655252234018362,-0.03155006639725339,0.5050230026245117,0.5365730724503509,8729
-0.49316578742030437,0.5820065396360421,1.0751723412510579,-1.7167922690906356,0.5003485342042636,2.217140839163181,8758
-0.6376098587599716,0.5528089161613153,1.1904187717669066,-0.7535088083385366,0.7446281973239595,1.4981370267614853,8787
-1.2101820960985918,0.5775340013493514,1.7877161074368142,-2.043750258673609,0.4819105114557047,2.525660725821436,8816
-2.66887379218357,0.5451951894371092,3.214069008958642,-3.467835896838028,0.495313846959477,3.963149821863765,8845
-3.7941625010480955,0.5315013184174155,4.325663780035757,-4.402606360680234,0.49785679842518493,4.900463340556727,8874
-0.1668103632353895,0.5862716172206757,0.7530819310374401,-1.852274761790723,0.464281001977161,2.3165558671529314,8903
-1.4513416285025902,0.5000886691050335,1.9514302839386424,-2.050057335237486,0.48934580794477883,2.5394031220832756,8932
-2.43506858682685,0.5167635204773622,2.9518321204474636,-3.1032538983674174,0.48538032464221514,3.5886342546581167,8961
-3.410832859846828,0.5059204669350957,3.9167532452937657,-4.002922184699405,0.47513592981659203,4.478058131395188,8990
-4.121203710120726,0.5101151986842382,4.631318825213885,-4.602410434621625,0.48250500501784604,5.084915296166344,9019
-4.060510152755787,0.5113796136345069,4.571889757452884,-4.620970147900877,0.4794690714473218,5.100439021017699,9048
-4.791283849844465,0.4966978753414806,5.287981683127541,-5.210041286671056,0.4776874516917541,5.687728274185045,9077
-2.9456753120927064,0.5014768440641931,3.4471521934837335,-4.383961103658761,0.459275756262045,4.843236872580199,9106
-4.543821453128129,0.4909019018086998,5.034723380697602,-5.029177910458725,0.47711720930791535,5.50629506068947,9135
-0.804361531332283,0.6080773667963232,1.4124387848337798,-0.6835124418798801,0.899934431092929,1.5834468571485671,9164
-2.075159671682507,0.6203808190409903,2.6955404817860864,-2.7680396358523747,0.4450594640411107,3.213099116772677,9193
-2.9842414098905756,0.4917966544036697,3.4760380611398647,-3.552853668685508,0.4914469634537148,4.044300585721446,9222
-3.7739915011867535,0.49634888206322114,4.270340403227717,-4.290370439006164,0.4833093997651497,4.773679750155559,9251
-4.371588620750486,0.4983252606292018,4.869913952878975,-4.771066842880924,0.47033292213372424,5.24139978189384,9280
-4.789384644770175,0.4902992159161047,5.279683896435924,-5.127497567539722,0.4910204727037818,5.6185182554531945,9309
-2.6868288871866075,0.5039098780630967,3.1907387074193987,-4.292731647997831,0.45528906003563807,4.748020543461353,9338
-4.117469016877398,0.4797949564890667,4.5972639460285025,-4.612889538824031,0.4730192370119348,5.085908805374551,9367
-4.797830089055979,0.4956501271522295,5.293480129725615,-5.125733590759007,0.4862821629617067,5.612015918292831,9396
-5.017609741353936,0.4964824453604129,5.514092156222006,-5.333510820844532,0.47034721458907675,5.803858124049364,9425
-3.4199975927451742,0.5014108570565725,3.921408439812876,-3.439730745501223,0.4469154281953795,3.886646304510336,9454
-4.340844178541492,0.48203307239065624,4.822877213079585,-4.9114056097722685,0.4780474046690274,5.389453179013413,9483
-5.080019282663802,0.5009668764495009,5.580986149124431,-5.5663273566592055,0.4645559766651255,6.030883518995437,9512
-1.190301053579219,0.5406811839296116,1.730982265241091,-1.458084332204498,0.7015748066184795,2.159659225328834,9541
-2.7237250300200273,0.5345057047977468,3.2582307119485168,-3.276951815174744,0.4727719906157097,3.7497237213944965,9570
-3.567527555446772,0.5085713624165629,4.076098878433581,-4.133933092640564,0.49157886167543124,4.6255118446012515,9599
-4.327682375776465,0.5210522501313568,4.8487345097214805,-4.896044659403573,0.5155015455938019,5.411546015106471,9628
-4.713300195523633,0.5262916810983072,5.239591848758248,-5.091823632738231,0.47224138479317185,5.5640649035968615,9657
-5.220582693913806,0.5195611067354482,5.740143898960774,-4.500682054367741,0.5059000496315745,5.006582006943964,9686
-5.264776192531564,0.5068386255577617,5.771614789699903,-5.855007192729849,0.5123382965020374,6.367345489231886,9715
-3.9312405071027223,0.4938488716327369,4.425089263074848,-4.968215393809091,0.4773486736601433,5.445563999952468,9744
-5.156724373587174,0.5043169634607687,5.661041360705795,-5.6936173017046094,0.5097504843652776,6.203367857806451,9773
-5.138587232461443,0.5205239944710358,5.659111208006197,-3.667128537608459,0.4963942924431995,4.16352290600802,9802
-5.3342583418681055,0.5141273333455919,5.848385660493255,-5.861371002366058,0.4927349259368086,6.3541053839489425,9831
-5.743994272793535,0.5081364753622204,6.252130758670357,-3.5942486492933425,0.5038009871423772,4.098049805227634,9860
-5.545541800106768,0.5130099508964766,6.058551624302302,-6.179880226607871,0.5083802527031013,6.688260373816026,9889
-4.658294856482593,0.4998722328766441,5.158167007345349,-5.682235169199716,0.4852275215418993,6.167462711840605,9918
-5.598833635071541,0.512902811843216,6.111736520516964,-6.062924258476865,0.49818898935233596,6.561113273147988,9947
-4.480372470426717,0.5225270701348453,5.002899540035832,-5.726574661457433,0.4710917683829248,6.197666742105399,9976
-5.571042169152442,0.5080070642809884,6.079049199786707,-6.080749617213696,0.5135595313215677,6.594309443921114,10005
-3.5790204423527996,0.5502484010362046,4.129268881767298,-4.124824608321738,0.5076650560429666,4.632489499792588,10034
-4.770107735609667,0.5228502810855684,5.292957907343384,-5.338117240804486,0.5014907533088616,5.83960804897072,10063
-5.463079007221293,0.5252899245627003,5.988368832421013,-5.954255829870173,0.48332099998946737,6.437576834079438,10092
-5.895718537722822,0.5167343692716453,6.412452874399204,-0.550384702935683,0.5050364004827179,1.055421069660018,10121
4.967701184447309,0.6082610505681316,-4.359440011252642,-1.0590190613164312,0.49218113232502897,1.5512001577731782,10150
-1.6462720509006539,0.5183034847431961,2.1645755179004604,-2.5022540619942992,0.5007201422632268,3.0029743835989353,10179
-2.8210875136323907,0.5241163715375167,3.345203795007203,-3.420719956929705,0.5023431271578358,3.923063092527136,10208
-3.8502055292224147,0.5204130338860189,4.370618536296201,-4.807696013324029,0.5064547209613091,5.31415064988938,10237
1.4710070714929533,1.2477291637113628,-0.22327778213210775,-0.282870691434472,1.2527708711877334,1.5356415605123064,10266
-0.9660604687483597,0.8078017634357086,1.7738622373099364,-1.9072601563107652,0.5582501318602435,2.4655101742364662,10295
-2.2203968525458593,0.5606337907953063,2.7810305855108597,-2.8660593053935903,0.5366351372372787,3.4026944320813746,10324
-3.1152451519403592,0.571468854292225,3.6867140377763876,-3.551407746509113,0.5270639985008577,4.078471698592194,10353
-4.38144054801882,0.5676443479552684,4.949084928569352,-5.3640259050689965,0.5059924674245109,5.870018342954922,10382
-5.277792276069111,0.5187764930094222,5.796568949403942,-5.550401337378848,0.4939354964062176,6.044336842224661,10411
-5.086085679775562,0.5357876833376312,5.6218735238551565,-3.6988564297161273,0.5145734094940455,4.2134298814081514,10440
-5.151953456420226,0.5098643523724102,5.661817868200131,-6.201621659034122,0.5141269844190209,6.715748339627696,10469
5.694751130443686,1.3147075110522757,-4.380043471924131,2.1292716000987366,0.8415326650163769,-1.2877388928843811,10498
1.0276523760490144,0.6141154984260736,-0.4135368795615704,-0.25565768343157474,0.46224644331805476,0.7179041330793262,10527
-0.6725137900754136,0.49855485325217114,1.1710686483877364,-1.3300928309955429,0.4747047128930556,1.804797586086577,10556
-1.563754713390733,0.4899941179429026,2.0537488510485127,-2.270427815682065,0.47082741492617447,2.7412552960151064,10585
-2.7524370192955714,0.519868605192073,3.2723056158130985,-2.710969135824558,0.5184189577018266,3.2293882116807247,10614
-3.2469718889995605,0.5494516450488712,3.7964236418230923,-3.756437238338774,0.5791070144788354,4.335544282356195,10643
-3.178164360410192,0.5640484337769901,3.742212697189987,-3.172467187442611,0.7095240280691502,3.8819911585444897,10672
-2.9619565927469744,0.5715081683855993,3.533464745097807,-3.8358041923657984,0.5024895457039892,4.3382940376754355,10701
-4.207583082024554,0.5243800703719538,4.731963093514742,4.187092181855598,0.4818964721882238,-3.705195671689194,10730
-3.358358489901912,0.5048132615683492,3.863171713091967,-4.376448053174315,0.47740007501787846,4.853847942521087,10759
-4.626157353705056,0.4815433527432308,5.107700713808508,-5.274848043391135,0.44785554008146305,5.7227037142863315,10788
-5.2704947591485105,0.4629677059632021,5.733462391509505,-5.790656275453821,0.44215105276192185,6.232807395732508,10817
-4.971764258539269,0.4731261002057968,5.444890351384846,-5.289466511886732,0.43409076201177277,5.72355712620558,10846
-5.297290568052079,0.480099680142471,5.7773900899498045,-5.868733904003042,0.4508571160578095,6.319591015841054,10875
1.396664017747755,0.5649492312161111,-0.8317146225038674,3.313029846258923,1.0236507432650677,-2.289379018597898,10904
1.3962181684332093,0.695364077798324,-0.7008540830117996,-0.9048066782740365,0.48849216393664874,1.3932989171120973,10933
-1.5277905397141782,0.5756152656664527,2.1034058273298606,-2.4169573193102813,0.5236240319446125,2.9405813976726702,10962
-2.803727960113391,0.5251445885924284,3.328872529253807,-3.462822319132037,0.5061932580660929,3.9690156109565127,10991
-3.7044913923858678,0.5145209984321972,4.219012452854211,-4.255974187260181,0.48643090239668313,4.742405106536055,11020
-4.393109280061564,0.5034363493241181,4.896545666712516,-4.848771103715475,0.468433624875229,5.317204838305448,11049
-4.865706806014628,0.49325301707645236,5.35895962278793,-5.278506481541997,0.4846813320058637,5.763187509722414,11078
-4.9149988257503825,0.4973100243750323,5.412308891658089,-5.484013270487828,0.49282530978717637,5.976838643571972,11107
-3.9186751776782525,0.5185103253466554,4.437185549289152,-3.8003040625985745,0.49660163643085853,4.296905720128422,11136
-4.520302611648576,0.5076013310610131,5.027903904857026,-5.061992835154576,0.46130133097150683,5.523294364456582,11165
-5.194465853282083,0.49667631672919127,5.691142051722013,-5.706361732651702,0.47201693374498754,6.17837834991185,11194
-5.693869204347688,0.49163831450053325,6.185507525156982,-6.131869290782287,0.4764863621872083,6.6083559019375695,11223
-3.100924970296673,0.5091024801512931,3.610027483568959,-4.702002812275844,0.48412558462767474,5.186128194353222,11252
-4.731184413703826,0.4986586539195943,5.229843084972512,-5.259729330518605,0.48139218524494004,5.741121747852427,11281
-5.381776956371068,0.49263143749720734,5.874408398074116,-5.880448624096085,0.484471806382711,6.364920354522435,11310
-5.883677114068213,0.4861925802262379,6.369869833612915,-6.229116494676708,0.4773147169467622,6.706431160985896,11339
-6.046035191190019,0.4890041871791112,6.535039439090951,-3.5612696757358786,0.47285884249526844,4.034128442274786,11368
-5.252325103721913,0.5129492401156693,5.765274363289595,-6.226654740561426,0.45631033551376476,6.682965574011338,11397
-6.144864806266709,0.4900525218202366,6.634917388545902,-6.469384421289495,0.4773877489883288,6.9467720774422705,11426
-3.8127760989663355,0.5172860025702396,4.330062193276469,-5.314020688554882,0.5806203437062492,5.894641167294663,11455
-4.160615014136166,0.6276455419723359,4.788260639699581,-4.737127240780181,0.5693354986410225,5.306462650805448,11484
-4.974801962010258,0.5324772426811311,5.5072792625216955,-5.621328210408708,0.4796391124218966,6.100967272193031,11513
-5.671525434727442,0.4969073240917336,6.168432729904024,-6.153076471480648,0.4771310586844925,6.630207568143321,11542
-6.049905722301614,0.5016154073170553,6.551521133035914,-5.990166790717471,0.48692725190019187,6.477093991980088,11571
-5.5743345578161065,0.5070368179018468,6.081371370460653,-6.337969341109284,0.5183301942538371,6.856299476285951,11600
-6.326454827646174,0.5204558015001123,6.846910621786065,-6.82502392119011,0.4918223819901458,7.316846054212182,11629
-5.148363708004011,0.5213505561980023,5.669714205320247,-5.522227629096107,0.5077381429419053,6.029965831115183,11658
-5.647882480474133,0.5260073615539954,6.173889761591431,-6.299686938260509,0.4972171825645244,6.796904032209278,11687
-6.318223594699174,0.523044076223489,6.841267696157706,-6.797801760445654,0.49855350815089405,7.296355526004217,11716
-0.6307000260894591,0.5499231202862623,1.180623265847876,-1.0474048061708434,0.5678304402174148,1.615235218959572,11745
-2.625659110659144,0.599396454854206,3.2250555768165463,-3.5186007676926336,0.5647553638019392,4.083356266528105,11774
-4.04571424061566,0.5793410504140296,4.625055235302304,-4.702968369543025,0.5740716309674019,5.2770403296546595,11803
-5.0102333386388604,0.5702753287823223,5.580508702119367,-5.513585018900644,0.5463271309844161,6.05991214988506,11832
-3.0837782630583943,0.5903897742846572,3.674168140911872,-3.3638050450687915,0.6930164995446669,4.05682150241548,11861
-4.087405250774329,0.5934537006449673,4.68085903685043,-4.596120074786971,0.5898159162133141,5.185936244188157,11890
-4.857232730995859,0.5620333914457109,5.419266075125866,-5.44266992332661,0.520109210394125,5.962779154819724,11919
-5.601334230113844,0.5464550331645659,6.147789152875099,-6.119630222826933,0.5374222603519406,6.657052571794628,11948
-6.179641438687124,0.5387054956471907,6.7183470131938225,-6.606704534682552,0.5239682577352608,7.130672893692962,11977
-5.504562841097864,0.5391026352837173,6.0436654642897905,-6.176547666566562,0.5288471964608251,6.70539477863143,12006
-6.27108729897681,0.5384951042629523,6.809582467378829,-6.67655259951026,0.5408722278291145,7.217425050988662,12035
-4.528286926735854,0.5307597982581158,5.059046776055501,-3.793239125108297,0.5925905261419516,4.385829621711664,12064
-4.611802232567767,0.5800707737166668,5.191873022582065,-5.134406174178672,0.5299281736390781,5.664334187465432,12093
-5.32586718551905,0.5292121125949915,5.8550792050598215,-5.870040809158731,0.5124264396397413,6.382467556843715,12122
-5.931924848861442,0.5262629373333815,6.458187704706665,-6.364609439816095,0.5278557971515486,6.892465507034707,12151
-5.837802373850359,0.5194408938272259,6.357243293175492,8.827047634968716,0.5146200171614115,-8.312427622027101,12180
-2.472605315169531,0.5014065723566394,2.974011874382919,-4.692145398232789,0.5645105648884731,5.256655802768943,12209
-5.127140161878088,0.5540544085097813,5.681194528329464,-5.7213742289922935,0.5244944707482262,6.245868851653243,12238
-5.8400166447396575,0.5268539047030919,6.366870480572112,-6.374286461720424,0.5281987992008176,6.90248526514104,12267
-6.102658161386239,0.5411732719909265,6.643831490681742,-6.425632046387259,0.557004118387678,6.982636308248064,12296
-6.389346300438457,0.5500566541425711,6.939402957735409,-6.393849229390642,0.5449962025195096,6.9388447989404725,12325
-5.2873682597243405,0.5438481696779699,5.831216405218728,-6.327358541235459,0.5461813243089524,6.873539882423604,12354
-6.43483947892699,0.5467090932642086,6.981548498588991,-6.888864027715362,0.5404042944443964,7.429268085851079,12383
-6.756193425978689,0.5436493280572692,7.299842699885763,-4.417442807054098,0.5464141052381127,4.9638569924683695,12412
-2.6693213587953344,0.5853153620954386,3.254636673049338,-5.100021936197196,0.5946689031820381,5.694690603070555,12441
-5.221706056542276,0.5599715013093959,5.781677553120101,-5.779680230976206,0.5537542030874607,6.333434315909327,12470
-5.8857009849842745,0.5346810752002249,6.420382103294364,-6.337041306284677,0.519971687181861,6.857012588365943,12499
-5.9333824966813395,0.5314911439636971,6.464873649319583,-5.7327757219297695,0.5330967185771571,6.265872516463288,12528
-5.444572977614902,0.5441954314642994,5.98876843773149,-5.846117787656531,0.5286662852869625,6.374784216416621,12557
-6.165503049238514,0.5633393679853311,6.728842444036078,-6.806353653426719,0.5604649180859591,7.366818723425401,12586
-6.855721023668922,0.5576572418212891,7.413378243409549,-6.3731143200292,0.561187533150732,6.934301865839325,12615
-3.859464306815588,0.5733976558655862,4.432861996853628,-5.64082179027321,0.5563540585273135,6.197175895218301,12644
-5.801073419745466,0.5477582554044377,6.34883164781194,-6.297768002062773,0.5298739492365744,6.827641579957135,12673
-6.5213567514009485,0.5518878923098597,7.073244652122489,-6.908215286457433,0.5327456904723581,7.440960639345962,12702
-6.99800394440959,0.5485590106202854,7.546562935052133,-6.9892459042304385,0.5359335705242326,7.525179162489629,12731
-4.530674622103556,0.5549714946431388,5.085646123581185,-6.532584127071685,0.5969449355538967,7.129528889613869,12760
-6.558127296010347,0.5700717298303707,7.1281992061661255,-6.97650696746016,0.5159804504529565,7.4924876795405835,12789
-2.1442651844602962,0.618197646135795,2.7624629198387676,-1.9530836480908689,0.6131670791490943,2.5662507588884473,12818
-2.642299407109405,0.9333145042764313,3.5756139197975165,-3.9763015308211336,0.6624006254483114,4.6387023250613595,12847
-4.235220696197981,0.6010092348353209,4.836229881614677,-4.979209954759716,0.526873580122416,5.506083800729397,12876
-5.169438726452509,0.5450998009762664,5.714538582630431,-5.734956175880095,0.5655383304157088,6.300494168711975,12905
-5.734868983318156,0.5572049704512793,6.292074007919632,-6.038104019333831,0.5553233053831927,6.593427539926715,12934
-6.148212176305062,0.5710277215648513,6.719239845822639,-6.58906528169075,0.5573487408393252,7.146414292597138,12963
-5.27946683090866,0.5583944047299083,5.8378612871601145,-6.427830637028787,0.5542999368853274,6.982130472638966,12992
-6.085449927434111,0.5681867047470749,6.653636844050398,-6.687202402975707,0.5511536387215673,7.238356058576466,13021
-6.669221960065646,0.5579944450773767,7.227216352570017,-6.801842769690319,0.5308877767714779,7.332730183559182,13050
-5.005964001589336,0.5817389419875308,5.587702956194389,-5.762317952856553,0.6455912547828877,6.407909021968335,13079
-3.5991350613460518,0.6189022547880634,4.218037242531908,-3.9666444221429065,0.5017581787784543,4.468402626240148,13108
-4.3997962877006485,0.5226588049429123,4.922455145216566,-5.026407490789363,0.5555952882344743,5.5820023528242535,13137
-5.314243345565544,0.5426451047962529,5.856888650139217,-5.824023499953008,0.5661525051150702,6.3901758784741425,13166
-4.2243586085991405,0.5574762213979298,4.781834761126433,-5.484137712326725,0.5939468535701785,6.078084692490839,13195
-5.951923729960685,0.6082302375297168,6.560154041092609,-6.395316769591475,0.617181676678953,7.012498703678097,13224
-2.502660883826747,0.6690716102078573,3.1717325166409966,-4.313052266044954,0.6634305852704343,4.976483167800228,13253
-4.7611913102727215,0.6332494726254633,5.394440820225019,-5.354345384952241,0.6372582680356186,5.991603615009679,13282
-5.677454039963761,0.6203628553708044,6.297816889551535,-6.114066123962402,0.603486373361233,6.717552387608891,13311
-6.193627193980864,0.6087839695426832,6.802411248691816,-6.631222243857595,0.6118219932623669,7.243044152724004,13340
-3.976503473658283,0.5958149204443414,4.572318479796623,-5.555991539912942,0.6318663706821678,6.187857906375311,13369
-5.794817775717907,0.6258593867342948,6.420677168235232,-6.325903508515484,0.6067076066953946,6.932611246024613,13398
-6.560962524014507,0.5998492114730549,7.160811772288667,-6.988497295210847,0.5794131523739975,7.567910388507674,13427
-2.957704979897597,0.6337400381725442,3.591445048036754,-3.1606303337400994,0.5669762265365735,3.7276064442322316,13456
-4.386759089266977,0.6554313836313267,5.042190463435164,-4.977954375005401,0.6699659212500648,5.647920186540722,13485
-5.2744102052186,0.6209333849846989,5.895343608078121,-5.773307336115204,0.6271995189970574,6.400506888870645,13514
-5.9416856413507935,0.6168356272982395,6.5585213422512405,-6.317878951013616,0.5663465229810867,6.884225355840362,13543
-5.7946365360651155,0.6018374463031941,6.396473969750788,-5.0515700314952205,0.5754805877145412,5.627050686726528,13572
-5.870108114976473,0.5846843209524271,6.454792447494961,-6.600842210043848,0.6419089072573502,7.242751535061187,13601
-6.757648740345745,0.5926977849453523,7.3503464232994675,-7.135108829599567,0.5902827862089715,7.725392164382259,13630
-5.821371304555134,0.5917789970238128,6.413150341534431,-5.984719234230244,0.594399291857154,6.579118441691441,13659
-5.6192827745204195,0.6090205764560216,6.228303406703827,-6.259665632669905,0.5373298678777915,6.7969953148765905,13688
-6.506159471177477,0.6207549164550176,7.126914439679769,-6.969518066507526,0.610567270127018,7.580085416810703,13717
-7.012529732768302,0.6057343919327135,7.618264161502119,-6.4790880785579175,0.5493300699554713,7.028418076776825,13746
-0.23567676846484234,0.9114743751096883,1.1471513161454205,-4.0032256345833295,0.7078581447094943,4.711083808831409,13775
-4.444010971136629,0.6315646239914731,5.075575486827711,-5.152513588424277,0.5501193662660312,5.702632937811117,13804
-5.449902519238692,0.581380093373695,6.0312825363815294,-5.965192925613539,0.580530124427998,6.545723231492844,13833
-6.137051514517249,0.5876411792330337,6.724692701110503,-6.516309991347051,0.6098610194383469,7.126170740718335,13862
-6.651999719613443,0.5910475146284176,7.243047207429627,-6.96067553072904,0.5927932874291344,7.553468687344441,13891
-1.1631574956689938,0.6726492505352184,1.8358069254781604,-3.7903000907560367,0.6617573932208846,4.452057492416517,13920
-4.4606792955703485,0.6922029644546593,5.152882240572995,-5.187246613797888,0.6231329588763481,5.81037970348797,13949
-5.540574305112727,0.6056878117242748,6.146262205685381,-6.051871544491928,0.6115522891019298,6.663423926429411,13978
-6.279629137970778,0.5868810503327728,6.866510292398101,-6.688751967607346,0.6041685796416967,7.292920407995713,14007
-6.788335737083292,0.6092701725817831,7.397605870761051,-7.125429280036319,0.6063604439254355,7.731789918072455,14036
-7.1381807316755905,0.5910667121870383,7.729247466469022,-7.328132485921404,0.5801608414776558,7.908293462432591,14065
0.06457944426278953,0.7060570438220982,0.6414775911476278,-4.0157701441672,0.708035705363856,4.7238057229371195,14094
-4.2769309152184665,0.6933110162467915,4.970241870480572,-4.905763351811772,0.5626405192687448,5.4684039765754635,14123
-5.318810561526045,0.5963129750160293,5.915123423247248,-6.108795592215209,0.6132469008454179,6.722042049981852,14152
-6.574544062293746,0.6101131249946166,7.184657154693099,-4.760216632775501,0.5872317879600862,5.347448298361449,14181
-6.398622472861899,0.5632006131038645,6.961823216346817,-6.95673591478736,0.5508250177434061,7.507561337631361,14210
-3.3679998362603234,0.6008873532599099,3.968887272322717,1.1032557350344363,1.1242710046008624,0.021015323368848954,14239
-2.206753020512624,0.7347322361997628,2.941485248037841,-3.26421925873883,0.596070601876858,3.8602897846593267,14268
-3.658367109140987,0.5941453695034377,4.252512556452473,-4.315609412910664,0.5410448892981605,4.856654344406803,14297
-4.54240657528811,0.5786924025715383,5.121098973653808,-5.012462476713467,0.5839552752739561,5.596417452381775,14326
-5.174678038604467,0.5887242882885244,5.763402381568917,-5.492184693834423,0.6018715073577071,6.094055850948908,14355
-5.308205130870445,0.5821203281230148,5.890325338075548,-5.505114648194439,0.570562404868877,6.075676977106955,14384
-5.488331654368845,0.6060991087454025,6.0944306648027275,-6.003390021028772,0.5984051881638248,6.60179516277482,14413
-6.09433799121188,0.5945656002553584,6.688903741300304,-4.949327321179145,0.577698749778545,5.527026286167381,14442
-5.185458987655555,0.6140300105135916,5.7994890055293675,-6.0484360720204045,0.6074073335765737,6.655843481553339,14471
-6.179282479144247,0.623704423452291,6.8029869777759355,-6.531580325776496,0.5680377757654781,7.0996178821124865,14500
-6.000814283301575,0.5868882155076671,6.587702449390617,16.85534890774077,0.5960647701162153,-16.259283825359514,14529
-2.814827979991034,0.595552011256444,3.4103800364602623,-4.67416513071651,0.6385114636041421,5.312676488825705,14558
-5.17235537006416,0.603876840450535,5.776232247315799,-5.779038825921253,0.5733897031935971,6.352428335004149,14587
-6.058211591041338,0.5759558314919603,6.634167428316329,-6.458792720220785,0.5471236558087105,7.005916089083241,14616
-6.669224934646286,0.5809169136308125,7.250141871409221,-7.042469965673126,0.5332713675709952,7.57574111803443,14645
-7.063744506078886,0.5854707111203027,7.649215260834783,-0.61591057334326,0.5610271723924485,1.1769377615599506,14674
-5.283541514303088,0.6420424334138073,5.925583983466538,-6.561200530128142,0.6026017855753941,7.163802155351217,14703
-6.824612498151954,0.6135027164135379,7.438115331277563,-7.253040026774449,0.57035977017563,7.82339963659776,14732
-7.222971879923357,0.5875101057933736,7.810482020940644,-6.182945551070492,0.59186370815851,6.774809643230607,14761
-6.836218081077904,0.5893978241917317,7.425615985706334,-7.171409138536031,0.5736001191940983,7.745009565775374,14790
-7.278800559017598,0.6107644325054468,7.8895649347441985,-7.57196975809283,0.6153581585504312,8.187327697213773,14819
-5.434205729222745,0.5876143959154762,6.021820232912882,-6.055258577903815,0.6090717146881913,6.664330879143909,14848
-6.690667007303291,0.6032894901035902,7.29395639068368,-7.011884959398118,0.607717632192426,7.619602304644289,14877
-7.297558142042738,0.5912411914770763,7.888799303553202,-6.565101235313753,0.5887050037890409,7.153806298179964,14906
-4.009286959878402,0.5874080584356777,4.596695059846754,-5.658964992624469,0.6644134268296503,6.32337843633331,14935
-6.2224529717433805,0.7439094404664297,6.96636250421257,-6.981729996942841,0.72495795562204,7.706687859729328,14964
-7.2315729245329905,0.6517311640847742,7.88330423845083,-7.588618903033502,0.610834864388525,8.199453978411919,14993
-5.937653696129577,0.641743872368086,6.579397616864828,-7.12975535772543,0.5891405713241712,7.718896106281112,15022
-7.179931137501339,0.6342963057815568,7.814227448014466,-7.561713184930582,0.5953342471502524,8.157047778104259,15051
-7.497602378126016,0.6071311094795068,8.104733417683425,10.274672255051874,0.604877657594934,-9.669794943480365,15080
1.3142474081445292,0.7424579003154246,-0.5717895490989139,-3.6638108861129894,0.702852122551572,4.36666289473002,15109
-4.29100048555166,0.645554097773879,4.936554577542508,-4.989049447321259,0.6433204296415886,5.632369927600422,15138
-5.264040511655965,0.611399814601507,5.875440296816589,-5.693932984782531,0.5792351106626797,6.273168243138136,15167
-5.9069245773744425,0.6047648784212661,6.51168947735064,-6.164864805947363,0.6068144266584278,6.771678823285399,15196
-6.411838754403683,0.6056521293741077,7.017490929516305,-6.676512722420481,0.5943702343290886,7.270883205717644,15225
-6.547634153671012,0.6146082178891822,7.162242363674244,-6.693419456481934,0.6302736332986207,7.323692794394704,15254
1.0508942128936405,0.7774968699294388,-0.2733977258928293,-1.273171924911769,0.8138492212886304,2.0870211103321177,15283
-1.9695287239722405,0.7653695524987469,2.7348982570189757,-3.104623492840117,0.6800717463535545,3.7846952455233684,15312
-3.687058932988883,0.6963805185000452,4.3834394772497,-4.299605534139988,0.7034880629682962,5.00309382075757,15341
-4.826363612430493,0.695479689517121,5.521843372921171,-5.351273899584745,0.6958313241469122,6.047105164654487,15370
-5.618197762322136,0.6837973605180129,6.301995055546703,-5.247801721623514,0.6405618718240114,5.888363323380462,15399
-6.132309582425321,0.6532846601164459,6.785594321927005,-6.542888286894402,0.6199775965867844,7.162865832843612,15428
-6.837237598877626,0.6735627422522027,7.510800404743165,-7.129477868037942,0.6610196965985593,7.790497636373064,15457
-5.631394030372258,0.6802452202011495,6.311639262139469,-6.264244602844778,0.6419869735177639,6.9062313653726495,15486
-6.346737232334427,0.61950495645256,6.966242233999772,-6.714475669692048,0.6131167454002178,7.327592562785191,15515
-6.966862495573774,0.5924371384996038,7.559299675080322,-7.164362130966862,0.5816509786960298,7.746012864914616,15544
-7.24783439015869,0.602172020909016,7.850006309601806,-7.463312782017531,0.6342492989734211,8.097562401695589,15573
-7.477846677142966,0.6221064417207123,8.099952983751056,-7.693538572935932,0.6177454838710549,8.311283617948009,15602
-7.438587796990374,0.6315383816501403,8.070126013035548,-7.736151501140763,0.5650907026982941,8.301242524543694,15631
-6.442879497019169,0.6142385360818714,7.057118015226219,-6.749857843449686,0.6334553524456193,7.383313069301369,15660
-7.2845331132083375,0.6195566004928706,7.9040896111838475,-7.522569369425816,0.6547141708103956,8.177283768105296,15689
-7.578937410651126,0.6075864432270761,8.186523984259255,-7.570942642414464,0.5868179270651488,8.157760890184251,15718
-4.267424644419744,0.6394962044771608,4.906920957723027,-5.689096374849303,0.6218862449173379,6.3109823581391735,15747
-6.423777008266932,0.6632306762409316,7.087007499450886,-6.972222648890672,0.6271123970504355,7.599334986863938,15776
-7.134661240246488,0.6248678414535102,7.7595292315330635,-7.359460771611307,0.6236228942871094,7.983083404270949,15805
-7.449417390791821,0.613081742805052,8.062499074715106,-7.5073753289416825,0.6189975738525391,8.12637288591503,15834
-7.3435509770024305,0.59541624935617,7.938967005551978,-7.866022818911392,0.6220925761535104,8.488115563856818,15863
-0.6883299990814865,0.7890688056062575,1.4773988145451824,-3.027273652827845,0.6697073404767871,3.696980974315542,15892
-4.052849101652253,0.6910201906500736,4.74386927679329,-4.938827012492492,0.7521414798972881,5.690968336257259,15921
-5.53706970551311,0.7110046104927441,6.248074242403646,-6.046515819245735,0.691068412983312,6.737584139393494,15950
-6.5485472605535975,0.6588284477772234,7.207375826094353,-6.942177012958358,0.6395738145946401,7.581750515287957,15979
-7.139539433156511,0.6547994971143897,7.794339012810519,-7.3097898685826665,0.620106713961711,7.929896666940334,16008
-5.575706073967073,0.6633027370078561,6.239008814129309,-5.412462453926559,0.7437143072617792,6.156177216926507,16037
-6.05930410593321,0.6172418515500844,6.676546077875476,-6.492623970571873,0.6223977856931433,7.115021427120783,16066
-6.837109471103454,0.6477037301531438,7.484813214925579,-7.204796149667385,0.6075475912178512,7.812343766204024,16095
-7.316123999729178,0.628822452835369,7.944946423649394,-7.545167703544144,0.7007064988127852,8.245874185477739,16124
-7.611760892310768,0.6462920445460074,8.258053006778873,-7.823749981095306,0.5830093569460169,8.406760156682108,16153
-7.743338295748373,0.6292005910105847,8.372538885181768,-7.319844102437517,0.5740952280770361,7.893939127964256,16182
-6.0742504877975785,0.6505585389731343,6.724808965260296,-7.29760168294991,0.6369336558654245,7.934535608882397,16211
-7.359023343373291,0.6060738100895151,7.965097278060829,-7.602811475770664,0.6090254319452606,8.211836553252903,16240
-7.741338718818067,0.6129882827220442,8.354326914794653,-7.919261425997304,0.6227127092074504,8.541974228040306,16269
-7.164732934095894,0.6218493113575592,7.786582332724642,-6.805179663464031,0.7307831586989681,7.53596294031734,16298
-7.648307282974597,0.6436049856713746,8.291912141945028,-7.631341647257847,0.6170697845188917,8.24841133050159,16327
-3.238062066306353,0.6471137527331233,3.8851757533232196,-5.090371600294535,0.5686664412506913,5.659038037325429,16356
-4.771982046314479,0.8636663672416712,5.635648380435157,-5.003877749485252,1.1194386946416535,6.1233162668953955,16385
-5.838992830673941,0.7700060431197565,6.608999107217842,-6.48238180379952,0.6249741495183084,7.107356113670146,16414
-6.7253636577820695,0.6153445511957776,7.340708210029308,-6.858652131747355,0.6245812441395447,7.483233426524475,16443
-7.023513428037195,0.6174585448604697,7.640971779954736,-6.624828532733749,0.640987497515383,7.265815802380047,16472
-5.275012663930096,0.6249324105671774,5.899945064574118,-6.791789628763114,0.5966199857998739,7.3884092347811805,16501
-7.000578261000056,0.6406167865193797,7.641195025964503,-7.335662495773451,0.6417400562657719,7.977402273532563,16530
-7.298945398025765,0.6441179883256637,7.94306339318592,-7.639376783792952,0.5802413130228499,8.219617995540652,16559
-7.7839091972847365,0.6057518671996801,8.38966118960817,-7.968415327831707,0.5807167745269506,8.54913249058006,16588
-5.9230483006747585,0.6183207847317629,6.541369226827905,-6.896690541664056,0.6327856198876305,7.529476334563399,16617
-7.2681548519197605,0.6689839200121828,7.937138617367308,-7.559678145214519,0.5875036188986449,8.147181688156802,16646
-7.5966590058054395,0.627508049368727,8.224167021527443,-7.865532984775779,0.5838153130185287,8.44934878729086,16675
-6.043618223238675,0.6344947015831726,6.678113026813477,-5.975658792310057,0.6055216493859755,6.581180471234617,16704
-6.820716381598728,0.5789931496028207,7.399709632141719,-7.1958955621297385,0.6490864205149423,7.844981910908117,16733
-7.484245190415388,0.633137183520602,8.117382196764963,-7.51649747696598,0.5701989114811991,8.086695983346585,16762
-7.884877610758621,0.610358634620675,8.495236221195713,-8.11365682888875,0.5868150998005824,8.700471861172566,16791
-5.86272421219646,0.6163797641405065,6.479104043104683,-6.226749799947823,0.608143789578328,6.834894230935426,16820
-7.3089722099220085,0.6525028169878,7.961475107346506,-7.702665168627173,0.6300853121597155,8.332750303555379,16849
-7.817876519284148,0.62883670748003,8.44671334768209,-7.9259216342352135,0.6239059583275719,8.54982764320036,16878
-6.161332453756112,0.6169266106669669,6.778259134345175,-4.742111746188813,0.6690979088302207,5.411209376512375,16907
-6.737757231198177,0.6437330929420749,7.381490293122179,-7.274929839952857,0.6411906723427562,7.916120546053996,16936
-7.617764916677591,0.6366112581818737,8.254376244255832,-7.691655234952943,0.5959138532655429,8.287569164174847,16965
-7.75099347786446,0.6048850308705322,8.355878499797582,-7.2279268028461825,0.6186698727903113,7.846597046978705,16994
-7.407525536243813,0.641238556412904,8.04876422987226,-7.941669632903243,0.5704842120145275,8.512153693005047,17023
-7.728412397904065,0.6099951569537212,8.338407648963466,-7.793608285684501,0.6619398741595512,8.455548176723244,17052
-7.939470491966576,0.6253389208161713,8.564809376507373,-7.2715025285703945,0.6486448271084676,7.920147245964118,17081
-7.319663066716809,0.6147861612145404,7.9344493441176915,-7.87504943915173,0.581845578894151,8.45689500116669,17110
-7.913896666866416,0.6005897337967138,8.514486352821695,-8.01455975422817,0.5581330071508357,8.572693006127281,17139
-6.691854304489254,0.5890801171089349,7.2809343180293675,-7.790431680932509,0.6143431283731376,8.404775028735136,17168
-8.001661608211261,0.6148890087333772,8.616550617996099,-7.869315501862922,0.5594830723990382,8.428798034127835,17197
-4.342148463807532,0.6319021227078506,4.974050767366521,-6.15593870973165,0.5653208504735896,6.721259328116358,17226
-6.702679460603321,0.6503870610759698,7.353066365537464,-7.156326091395015,0.6128424838580916,7.76916854993432,17255
-7.429739561469973,0.6167963089990248,8.046535714852903,-7.618435944076133,0.6455926051182029,8.264028903657357,17284
-7.631068767497137,0.6165483873234826,8.247617004461825,-7.651389493351489,0.6311868650723348,8.282576029279591,17313
-5.442538228818311,0.6441256235032256,6.086663991640001,-5.3808646666265165,0.6763679284965043,6.0572320718680865,17342
-6.771696350408888,0.7573077045175706,7.529003929802706,-7.401843779909927,0.6392169547291984,8.041060591165998,17371
-7.655114981410522,0.599262721220477,8.254377741535023,-7.754739972342432,0.5756425773147988,8.330382625613593,17400
-7.5342326726776765,0.5993890294429354,8.13362187193142,-7.907597516490295,0.6199595780499214,8.52755683291275,17429
-3.0824402995251505,0.682312872338847,3.7647530115163312,2.695664287668414,0.5540111170405835,-2.141652031282408,17458
-4.11935350624177,1.0476458285583026,5.166999396310489,-5.277516673096513,0.9162669983585324,6.193783785389588,17487
-5.914826569247009,0.7409041855800507,6.655730864704641,-6.546201461184341,0.6575268770741151,7.203727789684734,17516
-6.862755460539359,0.6530999974352785,7.515855480055299,-7.130459667307086,0.6069724327695053,7.737432294187292,17545
-7.411623322845426,0.635574850252734,8.047198117896503,-7.0529108511663114,0.6235128925964896,7.676423469475941,17574
-6.979699074893434,0.6461837436293294,7.625882906845413,-7.442413760497507,0.5740305723342221,8.01644397836871,17603
-7.864925010201686,0.6418791116926873,8.506804141346386,-7.845726831824378,0.6434445338966572,8.489171391039823,17632
-2.109680789308222,0.6644059257969966,2.7740867103736484,-4.603832822985353,0.5834000258319145,5.187232768641109,17661
-5.340012081928527,0.6521075910086669,5.992119685028984,-6.322050651617809,0.671675833980594,6.993726477158808,17690
-6.806060396192355,0.6882105788427519,7.494270778937797,-7.374715104567266,0.6837234665862227,8.058438596472277,17719
-7.648614016493994,0.6712721379878371,8.319886078250974,-7.878484607797809,0.6627240982730832,8.541208857983614,17748
-7.744194880867215,0.6731961817042174,8.41739104417088,-7.229792738382796,0.6182924709488861,7.848084981462597,17777
-7.627881278802437,0.6545343314931044,8.282415640262153,-7.999852290195701,0.6078935049276436,8.607745280308006,17806
-8.139452410638004,0.624103020412525,8.763555406866946,-8.142034024263905,0.5935238357138845,8.735557218568514,17835
-6.558904838141427,0.6561707719552609,7.215075508630789,-6.865823939838241,0.6091696139985481,7.474993410363662,17864
-7.481058844132092,0.6604996053491695,8.14155834328379,-7.819129201163233,0.6462997504040203,8.465428715258573,17893
-7.944719474922861,0.6149544195408595,8.559673835056225,-7.754321798814082,0.5886918886572914,8.343014067253181,17922
-7.808671946562375,0.6256050600895151,8.434277081305558,-6.2823324920856844,0.6185401815228757,6.900872154573424,17951
-5.905816626522481,0.6894623273788503,6.5952788650529515,-7.347114562988281,0.6074822096698052,7.954596865493639,17980
-7.7689297685549565,0.6397562915461329,8.408685921834085,-7.980208093086175,0.5989593573376141,8.579167458863385,18009
-7.028184126861303,0.60523341325047,7.633417451263394,-6.846315253097399,0.5905788219080562,7.436894374611104,18038
-7.511801417370747,0.6199174000909337,8.131718830079201,-8.08446924665333,0.5960344382091961,8.680503372597483,18067
-8.146672390787446,0.5954080642649725,8.742080612771435,-6.7949579627113,0.5745544349197793,7.369511697144635,18096
-7.20318316835027,0.6121377335099427,7.8153207309979456,-7.165805909485943,0.5666808069279764,7.732486691095133,18125
-7.80420525833685,0.617512420624856,8.421717575392886,-8.133695442064674,0.5868713581456547,8.720566741133158,18154
-7.5232384712194005,0.6197525364035676,8.142991046001262,-8.007850005563382,0.5810765460529158,8.588926332186809,18183
-8.21762436464051,0.6114254639193399,8.8290497297226,-8.122602673758447,0.5953803611012687,8.71798300954093,18212
-6.680065732806625,0.6074801253641585,7.287545873942685,-7.240187079505583,0.6004839281065274,7.8406708303806,18241
-7.902060354163392,0.6173342144344712,8.519394593832905,-8.141307662018633,0.6077680925352383,8.749076370644358,18270
-7.736961702264788,0.6161437681254899,8.353105429383334,-7.728089889593884,0.568604570574465,8.296694460168348,18299
-7.903130321019014,0.6219279143092651,8.52505844772322,-7.958123780984794,0.6214708142575964,8.579594704957135,18328
-7.507485536388158,0.6287710658770543,8.136256578607359,6.578755100216486,0.6374620673930751,-5.941292956867049,18357
-4.050991789640113,0.7306680710865092,4.781659793958906,-6.22572289525935,0.7944948652149302,7.020218030541344,18386
-6.738110304667379,0.6670429178214783,7.405153360755862,-7.291399137108727,0.588734280746595,7.880133299700982,18415
-7.587225337801327,0.6101826475368445,8.19740817775537,-7.722558148139346,0.6271037886628007,8.349662038077295,18444
-7.619523444801339,0.6163654274819573,8.235888724027422,-7.989824742342519,0.5899916961129787,8.579816700082965,18473
-6.11955906669255,0.6393514368210764,6.758910611288287,-6.5087845262173,0.5654926890820529,7.074277489586214,18502
-7.247579412660104,0.6536294638519119,7.901208871254716,-7.679258785416595,0.6091960636915359,8.288454849108131,18531
-7.946522283711796,0.6083669972656317,8.554889254165195,-8.266418727098314,0.6366457812554014,8.903064423957757,18560
-8.314111124982908,0.6125045259048815,8.926615865385651,-7.49083735035584,0.6198609782531198,8.110698193575429,18589
-6.942260095013805,0.6328174071643161,7.5750774059695205,-7.640927086889216,0.6689497770461361,8.309877108683628,18618
-7.933717977908638,0.6923593696712002,8.626077502670205,-8.241145826019016,0.6619215939952209,8.903067529728983,18647
-6.898733518089454,0.6378753892379139,7.5366088232105595,-7.008601116923105,0.6199600000297074,7.62856123932695,18676
-7.810127880765164,0.6435169137956814,8.453644791406465,-8.206481292184476,0.6067722961965916,8.813253217038856,18705
-8.28695714250289,0.6352341188222597,8.922191439021908,-8.292955010338167,0.6237237980935426,8.916679179773922,18734
-7.253157978941088,0.6176364161608107,7.870794277338367,-8.196560589613112,0.6048459669130039,8.801406455250968,18763
-8.243045988787363,0.6334587053006644,8.87650470670555,-8.484595003381239,0.5810532696479189,9.06564817175401,18792
-8.005399674538609,0.609314449041129,8.614714213479576,-8.581811297256335,0.5786734049299121,9.160484111414547,18821
-7.651771990703511,0.6290463533790529,8.280818253656996,-6.884651222060212,0.6077042723124007,7.492355211646156,18850
-7.824761792869526,0.633732252110457,8.458493839419532,-8.30612732034869,0.6026130861940637,8.90874015335488,18879
-4.560215490787005,0.671066655870835,5.231282340389365,-4.829584286276218,0.7173242990949512,5.5469088258996475,18908
-5.413780338051827,0.6751269032437326,6.088907235512528,-6.306528986027811,0.7238041025347415,7.030333122320934,18937
-7.035175283530844,0.6761008439279576,7.711276154271034,-7.412017476242201,0.6326824120715656,8.044699609807108,18966
-7.903951448800151,0.6444715333747233,8.54842303527361,-8.013752034280152,0.677733531040428,8.6914859197836,18995
-3.4844225575406074,0.7066422602307573,4.191064874550211,-5.02720231503512,0.5098673136888352,5.537069675141731,19024
-5.820129009696851,0.6421986693452711,6.462327572318921,-6.525203552921261,0.651659079357586,7.176862733553996,19053
-7.0137706113098215,0.6358004100004657,7.649571016052986,-7.3803584343564195,0.631269809419075,8.011628277533877,19082
-7.564483541637955,0.6250611876179654,8.189544761851183,-7.879825490765867,0.6046817998970504,8.484507062793833,19111
-8.162154205053092,0.6418996598518144,8.804053923786672,-8.176317527230863,0.6485822812645836,8.824899724099488,19140
-5.905956040143704,0.6083010092065511,6.514257180782768,-7.364349255519631,0.6502685293687128,8.014617784888344,19169
-7.6251647532840545,0.6410287796070978,8.266193553920354,-7.84248987552339,0.6024117765173448,8.444901863030628,19198
-8.11510577512024,0.6126815265962544,8.727787299613574,-8.008900380767551,0.6013639838294645,8.610264465872165,19227
-6.9155713615501595,0.6197146980344527,7.535286050647201,-6.540595506144836,0.5898241279399501,7.130419300720755,19256
-7.536674652499165,0.6340220261040701,8.17069682633338,-8.062345791706997,0.6510509558483563,8.713396865709694,19285
-8.175170043600433,0.6052941103622959,8.780464029364706,-8.358666521258058,0.5670385698301602,8.925704956054688,19314
-8.24614479260513,0.6325364827846877,8.878681060891957,-8.383912542224985,0.5848812677163994,8.968793750864215,19343
-7.124979581696196,0.6169939703557562,7.741973460574923,-7.0365147928221035,0.5402333335538881,7.576748333146087,19372
-7.478953033455677,0.7347116964523164,8.213664566931676,-7.5549232938648325,0.8520304165055267,8.406953659732785,19401
-7.241806776810113,0.687461013962179,7.929267681420441,-7.72214834668995,0.5845750285460886,8.30672380565542,19430
-7.559758488635112,0.6036007007401203,8.163359039542168,-7.402230676296538,0.5600523315699755,7.962283379208725,19459
-6.754737586407309,0.5512024386320776,7.305940020307816,-6.490546078808539,0.5915405307195883,7.0820870188485205,19488
-7.872115945868613,0.5986645024561436,8.47078018440827,-8.218851064158752,0.5849703476492283,8.803821664995851,19517
-8.317405749050758,0.6392420024304037,8.956647761470034,-6.0994431065247126,0.6029768496488048,6.7024199899319,19546
-3.9966370178819886,0.6124051371640644,4.609042238111401,-6.075976696689572,0.591931562508102,6.667908322494642,19575
-6.8347162311894625,0.6659543122582819,7.500670562374027,-7.682784856948177,0.6684123435906605,8.35119723429722,19604
-7.829575054437875,0.6509873007466275,8.480562388831226,-6.692498658610656,0.623734862403532,7.316233272046114,19633
-6.940542578040042,0.6078222373617523,7.548364792795402,-7.827318621947702,0.6130660993862996,8.440385126434597,19662
-7.478995323181152,0.6454703079694687,8.124465593298057,-8.086683796570364,0.6329379714695753,8.719621776479535,19691
-7.819611482083995,0.6343583971294836,8.453969928106373,-8.23263943089848,0.6420507346634317,8.874689692944552,19720
-8.213557833216287,0.6260372948357393,8.839595302594404,-8.470049242002775,0.6235030182694967,9.093552040842782,19749
-6.545483210646725,0.6184262014933695,7.163909365350119,-7.688912062518365,0.6194533035818455,8.308365003197594,19778
-7.868961310044933,0.6306170907278177,8.499578440202505,-8.167151619902754,0.5980121561911254,8.765163590422773,19807
-8.293471038275806,0.6221536659484661,8.915624919247865,-8.290994146228892,0.6713649952306157,8.96235913301991,19836
-4.434837722988612,0.6321549273641265,5.066992771270651,-6.611814899782164,0.6537181128442815,7.265532772097967,19865
-7.381700949474364,0.6985932279710865,8.08029427155113,-7.925618458638149,0.6332791252473814,8.558897845512998,19894
-7.997502160834635,0.639435338080258,8.636937588289003,3.3199538214016804,0.6323798694441803,-2.6875739646168935,19923
2.3621387108421117,1.0012206284713325,-1.360917853678206,-3.5797313673306355,0.9238810750235499,4.503612484552164,19952
-4.661694756416397,0.8805567574211886,5.54225156167902,-4.884754978449998,0.7521719805962217,5.636926971705614,19981
-5.71091217505761,0.7115992563956365,6.422511503478264,-6.363550608137013,0.7110940713798051,7.074644510724903,20010
-6.506026687537953,0.6519056596724437,7.157932302523343,43.23496296975465,0.664011094422467,-42.570949858268804,20039
0.9610210775860812,0.7284141180927988,-0.23260699191193335,-1.5993134152572768,0.6798397840651791,2.2791533343559873,20068
-3.1310838044281173,0.7236808899876301,3.854764671283625,-4.2807262049312085,0.7394807866189332,5.020206822758228,20097
-5.394375223834827,0.7358762000860952,6.130251446001585,-5.997411820740826,0.7967524064325653,6.79416426937137,20126
-6.3749585193730764,0.7348163435451252,7.109774857660901,-6.476781625663285,0.7160742768144186,7.192856240061532,20155
-7.011501336439442,0.7084180748843831,7.719919568517111,-7.346520744593797,0.7093398001341693,8.05586040125484,20184
-7.293441837125734,0.6802723052877575,7.9737141702771845,-7.372968293924247,0.6370973333848261,8.01006553447352,20213
-6.743525699586038,0.676611683728808,7.420137506335678,-6.8323593477232265,0.5999843884358363,7.432343609565128,20242
-6.826539190496342,0.7502657691593864,7.576805114746094,0.6526517888481638,0.6899699405231307,0.037318153718931484,20271
-3.9038158690653404,0.6313015202834561,4.535117292351602,-5.7544917216343165,0.629730435599268,6.384221980002074,20300
-6.345019938795938,0.638874883557102,6.983894920138829,-6.985548167102105,0.6136119133603256,7.5991601184406115,20329
-7.482688155168998,0.6299552596785136,8.11264329971263,-7.772611136985036,0.6739858610440145,8.446596533851286,20358
-7.833925176218826,0.6450685229821925,8.478993643999363,-7.879138845258055,0.6214157543351165,8.50055471774751,20387
-8.168997819263328,0.629543923227632,8.79854183344226,-7.746754494388546,0.6501743097220902,8.396928770352254,20416
6.07814493982374,0.8802879526964753,-5.1978568431429455,0.30944085437639623,0.7283573994594338,0.4189166178745506,20445
-2.1465622779421403,0.7575820935469084,2.9041443948840358,-4.285927451817336,0.8685346957856575,5.154462088525823,20474
-5.223312022536172,0.7616549537095109,5.984966786982863,-5.108021930255721,0.7399457577055535,5.847967907390763,20503
-5.216926842303629,0.7277273127630501,5.9446539747412706,-4.776008074262501,0.8128178351748306,5.588825799722587,20532
-4.601005320249345,0.6471538033743021,5.248159086822543,-5.35914931677084,0.6567968689234911,6.015946042221205,20561
-6.141143233668318,0.6988454091115193,6.8399885739092,-6.856596820122372,0.6867311781486579,7.543328074227392,20590
-7.03718158612572,0.6405461962194138,7.677727780242213,-7.500752524992006,0.6060800889951993,8.106832318601356,20619
-7.655134720471097,0.6519510554110728,8.307085863679088,-7.633547875733502,0.6750873801982509,8.30863534032771,20648
-7.594779907277033,0.6256412750042261,8.220421157046216,-7.983415409526994,0.5999365528072931,8.583352148005392,20677
-7.917598922039734,0.6178015632166752,8.535400466330128,-8.280947145107573,0.6035819180243838,8.884528641152171,20706
-7.471216349512371,0.6160902340856382,8.087306669292008,-7.737225110551952,0.6017531757861112,8.338977914995851,20735
-7.981323203283476,0.6315883044502569,8.612911396804693,-7.802622111497727,0.6376254410870308,8.440247932366566,20764
-7.996858206710058,0.6200133190134,8.616871607737346,-8.240634555310274,0.6721486116932557,8.912783327355848,20793
-7.891819278881068,0.6247865026026077,8.516605852457234,-8.311127071886991,0.6242470277094208,8.935374302146709,20822
-6.715697276421392,0.7878663758064447,7.503563541298796,-6.8286631297221225,0.72681648119361,7.555479471662403,20851
-7.403509891808625,0.6980566741876066,8.101566579665212,-7.853930718075913,0.6120113693507372,8.465942112745436,20880
-7.472773822163599,0.6380267916072689,8.110800711559223,-7.864171644227695,0.6843164325815386,8.548488650701742,20909
-7.003922433022496,0.6181119032442373,7.622034369387727,-7.4665122918323075,0.6214809755308438,8.087993115450429,20938
-7.929995455841771,0.6489486531359621,8.578944121069524,-7.796597843676542,0.7156641209020024,8.512262259964395,20967
-6.449170932223016,0.6179766302729126,7.067147563021659,-6.48182570195831,0.612171780746595,7.093998056597414,20996
-7.40761463539603,0.6280761984769407,8.035690761847954,-7.750476651487097,0.6124639089128613,8.362940830467021,21025
-8.119143672131388,0.6267829877144709,8.745926584666462,-8.345912713920121,0.6621568730447145,9.008070008944621,21054
-7.729987509326872,0.6006432026460389,8.33063081449027,-8.002197670725595,0.6356465078033178,8.637843444284085,21083
-8.311996950467076,0.6389807571781246,8.950977455820507,-4.94204202162481,0.6203621552053806,5.562404126192616,21112
-6.369264788506706,0.5826556811390533,6.951920367391264,-7.620527385610394,0.6225137288591504,8.24304104695278,21141
-8.029131909321004,0.6253396925878892,8.654471627669666,-8.060722638020474,0.6524164908755142,8.713139086698009,21170
-8.163113488909165,0.6298089348100118,8.792922342756748,-5.6656509289699315,0.6168800370883097,6.282530725529764,21199
-5.741376266984193,0.6250444704537355,6.3664206995853645,-7.38017386883761,0.7581931004482033,8.138366834252281,21228
-6.99312597440911,1.0884804173630416,8.08160638441193,-7.125263737366263,1.0232154373574045,8.14847909032771,21257
-7.923047780202006,0.7686931947626116,8.691741085367928,-8.278388715423313,0.7144286231657045,8.992817701491635,21286
-7.23885351662599,0.6304175088792021,7.869271022876542,-7.74946152847425,0.5782328158353283,8.327694378067962,21315
-7.683096293709112,0.6167457563743045,8.299841749365827,-8.124000684349937,0.6226947581873531,8.746695324382951,21344
-8.27555789758247,0.6419456012982386,8.917503508343849,-7.85289555102323,0.6551486749564652,8.5080442175401,21373
-7.848010240342415,0.6024276077287332,8.450437930610766,-8.29186877529178,0.653242465669075,8.945111165004494,21402
-6.143744837225732,0.622738395531096,6.766483025093457,-4.8181220282495545,0.5744825886414114,5.392604321505116,21431
-5.843677306254092,0.5557777148228891,6.399455077855826,-7.025277454241187,0.6405522338056986,7.665829683827088,21460
-7.355528288928519,0.6417159708227055,7.997244097826368,-7.851956409690654,0.6116349971399898,8.46359131399509,21489
-4.706952123946891,0.6337467591055436,5.340698954025992,-5.703312190233079,0.6915160575799183,6.394828256252593,21518
-6.3041907161178505,0.6465899379145613,6.950780521548438,-6.912491908115623,0.6101038097280317,7.522595835997995,21547
-7.265806600829338,0.6251263250458201,7.8909330105176965,-7.723548475619966,0.6271489404999049,8.35069734016351,21576
-7.9603936706383145,0.6301411289101531,8.590534803228579,-8.24159132695831,0.6389251725863566,8.880516389829923,21605
-8.354954577596343,0.6295162246140519,8.984470674457992,-7.977592063161124,0.6207014860305111,8.59829306813468,21634
-8.30989980960497,0.6229958760304646,8.93289574031136,-8.246401018800988,0.6946024852516377,8.941003580008989,21663
-7.5900153777302295,0.6130349738595241,8.203050333714932,-5.68826310824504,0.6621202873972665,6.350383184652413,21692
-7.692375602638051,0.5923241543796123,8.284699613493359,-8.238212003117114,0.6669983230860888,8.905210106773714,21721
-8.408419212669363,0.6174208331922975,9.025840061107834,-7.012694223792152,0.6432246655489491,7.655919032814229,21750
-6.95789652175651,0.5921315731523844,7.550028084920023,-7.657112796749689,0.6915676657077485,8.348680344303098,21779
-8.072462549283197,0.6178225188165936,8.690285082294501,-8.547192894252001,0.6691495929144126,9.216342352132882,21808
-7.272845811854387,0.6408716646549851,7.91371755274023,-6.974086495627344,0.6591540648873928,7.633240286227876,21837
-7.801954578538451,0.6800297944259223,8.481984147951911,-8.192838626625264,0.6703657133389364,8.863204415920562,21866
-8.19888368751669,0.6269629419572824,8.825846637359922,-7.468441347105313,0.6295825401238636,8.098023676239285,21895
-8.150185036685528,0.5977314083683977,8.74791639300665,-8.551519655548367,0.6635813839667666,9.215101393978152,21924
-7.15410773572743,0.6153102809565333,7.769418070834159,-5.054141057276093,0.6563992120523369,5.710539961283186,21953
-7.372531571225268,0.6422258742983312,8.014757335120288,-7.952024586432803,0.6222625918092981,8.574287347034016,21982
-8.279629804070755,0.6404534800444311,8.9200831269219,-8.601004279820264,0.6227441973390833,9.22374867127005,22011
-8.547704373857021,0.5956006728301632,9.14330519704598,-5.324861247982599,0.6137867902232482,5.938647987568273,22040
-5.766129195098709,0.6020485584633353,6.368177790363148,-7.312769408774587,0.7056858434086353,8.018455302820797,22069
-7.676574621862981,0.6243206022067002,8.300895068453586,-8.156959407097471,0.6490887076453825,8.806047557729535,22098
-8.011042740011163,0.6160836403793116,8.627126279450303,56.48239827789037,0.657808810208751,-55.82459144254701,22127
2.6569881728360514,0.9679337367990445,-1.689054574566876,-1.418674535455957,0.8371219550613809,2.255796415615926,22156
-3.653906953111373,0.792423529556594,4.446330557321635,-5.210280760199622,0.765275060603049,5.97555582502247,22185
-5.617529819660965,0.7300232053460202,6.347553038675967,-6.10212654772058,0.7509417829260362,6.853068326426818,22214
-5.217823713590712,0.7712504871624964,5.9890742696238455,-2.275573542687745,1.0402747635292795,3.3158482239309666,22243
-4.980065794211895,0.7464605828761529,5.726526422300833,-5.734256461658309,0.7432721399627955,6.477528799951604,22272
-6.442746516230876,0.6656457491982996,7.1083921792094475,-6.945823314970574,0.667477633045838,7.613301099929134,22301
-7.293533249490185,0.6292327609582667,7.922766141880965,-7.510443434251093,0.5968732580674433,8.10731668387894,22330
-7.422969026891504,0.6170854642083653,8.040054312877382,-7.322652538265802,0.6189066287690559,7.941558702857093,22359
-7.677386983621212,0.5968434645033461,8.27423046074208,-7.7193829781186265,0.597367885893425,8.316750855572456,22388
-7.446712739412419,0.5602054806239287,8.00691823738544,-7.183920269518827,0.5377765250416984,7.721696971792035,22417
-7.360509615880257,0.5668092662470606,7.927318854789355,-7.325589331905399,0.5985139914318524,7.924102918236657,22446
-7.745555655827465,0.5845896201464938,8.330145334329995,-7.870655405837877,0.6148446597884186,8.485500504485273,22475
-7.951439980503743,0.5809654726871714,8.5324054074524,-8.416720331242654,0.549075945288734,8.965796141497856,22504
-7.618688570756502,0.5651986081124404,8.183887065311252,-7.695064232412693,0.5319991660329093,8.2270632043349,22533
-6.82376924870164,0.5879027068023513,7.4116718330088895,-7.443811965199698,0.5650995305154176,8.008911537913095,22562
-7.619688127637566,0.5692505289727561,8.188938565659024,-8.123007377692028,0.5598155755912309,8.682822708534983,22591
-7.155589966947478,0.6136314314281796,7.7692214320223805,-7.135993991277914,0.5728608190485861,7.708854742809734,22620
-7.251576776935615,0.5725638716591496,7.8241406054849,-7.686072999397211,0.6709207602306805,8.356993548637998,22649
-7.37886737436549,0.6077722462167288,7.986639693658696,-7.169022273173375,0.5149393250456954,7.6839615813398785,22678
-7.759187984361406,0.5617142117930353,8.320902057887437,-8.350033304332632,0.5503591858180223,8.90039238043591,22707
-7.774741370990758,0.5799656871135337,8.354707139592449,-8.007919277765055,0.5715468415116842,8.579466558135715,22736
-8.244144054862867,0.5821150939546057,8.826259045248651,-6.156963015024641,0.6059808140307401,6.762944111781838,22765
-6.627717728388744,0.6210814027039718,7.2487990054432325,-7.4925570192590225,0.6326396823984332,8.125196473788371,22794
-8.198793724589995,0.6376772168715708,8.836470775330868,-8.265217131218025,0.6178471978786773,8.883064472569828,22823
-7.204834319790774,0.5921446722423885,7.796978934728586,-8.110178449512583,0.6168222174180292,8.727000818843335,22852
-8.321844241322072,0.6580899700177413,8.9799341708586,-8.591742431168008,0.6622672291983546,9.254009145551024,22881
-4.888752182894268,0.6768678514802338,5.565619875604026,-5.051559292109666,0.609946681334909,5.661505910147608,22910
-5.352061491422643,0.6437900058489782,5.995851502003191,-6.253410027090427,0.7397368945906647,6.993146643174433,22939
-6.848953038881212,0.6541557506531839,7.503108856302112,-7.273717272598131,0.5981188073622442,7.871836029322801,22968
-7.281019974701197,0.6014921983258332,7.8825120515833875,-7.602605558074681,0.647268143375363,8.24987347358096,22997
-7.969085494107685,0.6333248013303981,8.602410346959628,-8.139773993365532,0.6029291406141973,8.742702787956306,23026
-6.124688808815482,0.6280309662403581,6.752719715122614,-6.5296718884358365,0.550090756036539,7.079762956737417,23055
-7.523793060698083,0.6271997617912923,8.150992724703586,-7.904905977502334,0.7047109857069708,8.609616980088495,23084
-7.8587332739193885,0.6313958520268921,8.490129287871136,-7.991409605583258,0.5808915163563416,8.572300868751729,23113
-8.376258942626146,0.6389018382626568,9.01516094439085,-8.596684489629965,0.5855966584872355,9.182280818972968,23142
-8.414999478707108,0.6088226022899085,9.023822031578392,-8.223471177362763,0.586178290105499,8.80964917208241,23171
-7.853392092106493,0.602495991539666,8.455888169865887,-7.9455891837060975,0.6539002646387151,8.599489195156941,23200
-8.25553965542256,0.6261235382223077,8.881663279338866,-8.712848865880375,0.6286826007134092,9.341531534110551,23229
